#pragma once

const float LAYER_1_WEIGHTS[300][256] = {
    {0.16783613f, 0.19682417f, -0.11266486f, -0.03920667f, -0.06849214f, 0.11838151f, -0.13136801f, 0.04142122f, -0.01635654f, -0.03471574f, -0.01521592f, -0.03686144f, -0.00956322f, 0.02929708f, 0.07264907f, -0.05727064f, -0.06165263f, 0.26993864f, 0.04700099f, 0.03787339f, -0.27395204f, 0.08332899f, -0.10507609f, -0.08038345f, -0.09824533f, -0.04663143f, 0.08566472f, 0.03476413f, -0.15903902f, -0.02023488f, 0.07446275f, -0.06481017f, -0.09126526f, 0.02088234f, -0.04344682f, -0.05937860f, 0.11519436f, -0.13170873f, 0.06777369f, -0.11173781f, 0.02919987f, -0.01713864f, -0.09450566f, -0.14118910f, -0.08421052f, 0.09977535f, -0.07503310f, 0.01500282f, -0.19520206f, -0.05657965f, 0.07804211f, -0.20212205f, -0.03796066f, 0.08562836f, -0.00892476f, -0.17362489f, 0.19908787f, -0.15057810f, -0.16221229f, 0.07434707f, -0.32239494f, 0.08449159f, -0.11641790f, 0.10306846f, 0.07020842f, 0.00855205f, 0.13446149f, -0.03477020f, -0.07188869f, 0.09390218f, 0.05484047f, 0.13606118f, -0.11753596f, -0.00346541f, 0.07596503f, -0.00592608f, 0.27645274f, -0.03380267f, 0.05133860f, 0.00931774f, 0.07744320f, 0.21878677f, -0.28131951f, -0.01378711f, 0.00188874f, 0.10410602f, -0.08053931f, -0.09219542f, 0.00397372f, 0.12434423f, -0.03183926f, 0.11611008f, -0.09100545f, 0.13513289f, 0.08129034f, 0.13341733f, -0.23972633f, 0.06170477f, 0.11127875f, -0.02406449f, 0.03988538f, 0.11625987f, -0.00713367f, -0.19337977f, 0.00315440f, 0.00290655f, -0.02959797f, 0.03233210f, -0.05900673f, 0.02305920f, -0.00495161f, -0.24073973f, -0.02138820f, 0.03972528f, 0.07159592f, -0.11722546f, 0.05316178f, -0.02445630f, -0.03964048f, 0.13969059f, 0.08069645f, -0.08730213f, 0.03731554f, 0.08480934f, 0.12319502f, 0.01296505f, 0.07023327f, 0.04870872f, 0.07189438f, -0.16570530f, -0.03466214f, 0.10562924f, 0.02322961f, 0.07215171f, -0.10971977f, 0.08006477f, -0.12673974f, 0.01268145f, -0.08283908f, -0.07339855f, -0.00717903f, -0.01449416f, -0.03893724f, 0.10788031f, 0.04894967f, 0.14998672f, -0.04055797f, -0.00097574f, 0.03697682f, 0.10821832f, 0.06540102f, 0.05237775f, -0.09674082f, 0.18416230f, -0.02905606f, 0.11036619f, 0.07969401f, -0.06008766f, -0.03565455f, 0.01152283f, -0.04474862f, -0.11980216f, -0.05863225f, -0.24708839f, -0.09792936f, -0.14934300f, 0.08352842f, -0.01408672f, -0.16853868f, -0.09527456f, -0.07321959f, -0.08021764f, 0.04740868f, 0.03522602f, 0.02858816f, -0.02248502f, -0.02372139f, -0.10617700f, -0.00081593f, -0.02561152f, -0.11653096f, 0.13948072f, -0.13351146f, 0.16186982f, 0.10446189f, -0.03115094f, -0.11205306f, 0.22192577f, 0.07083462f, -0.05687177f, -0.08538791f, -0.23060158f, -0.15296138f, 0.06708626f, -0.05616929f, 0.09839853f, 0.24372714f, -0.15356268f, -0.04746622f, 0.14835708f, 0.17424791f, 0.05531541f, -0.06664222f, 0.01266471f, -0.12972949f, -0.03827512f, -0.04881495f, 0.12187497f, -0.09966090f, 0.06164042f, 0.06065645f, 0.07565107f, -0.03133187f, -0.12940481f, 0.07758335f, -0.03790473f, -0.07252798f, -0.08648514f, -0.06919722f, -0.22666229f, 0.04921462f, -0.13473328f, -0.13195297f, 0.09573212f, -0.00149157f, 0.05612320f, -0.10804605f, 0.01882877f, -0.11026711f, -0.25632627f, -0.07406975f, -0.00480822f, 0.10051244f, -0.08422846f, -0.07137664f, -0.00485826f, 0.17941380f, 0.04063958f, 0.02354334f, 0.03731386f, -0.01817065f, 0.00514774f, 0.08210893f, 0.07884496f, -0.02095976f, -0.00906001f, -0.04504807f, -0.09724992f, 0.10673219f, 0.10430428f, -0.04239609f, -0.06660506f, 0.16251437f, -0.01940821f, 0.09241833f, 0.11704329f},
    {-0.06555430f, -0.15334700f, 0.04986663f, 0.01815869f, 0.05647514f, -0.03728536f, 0.14405564f, -0.11169693f, 0.11442038f, -0.07932046f, 0.02151595f, -0.02584618f, -0.03369383f, -0.01499911f, -0.22253070f, -0.05220451f, 0.03152754f, -0.14560096f, 0.06182485f, -0.08893280f, 0.09054188f, -0.02245810f, -0.02365025f, 0.01772883f, 0.03874343f, -0.05463634f, 0.01760765f, 0.10813473f, -0.00777360f, 0.00484420f, 0.08225431f, 0.10553636f, 0.01850004f, -0.08402595f, 0.10175346f, -0.28352324f, -0.07329486f, 0.18902229f, -0.07171804f, 0.07848433f, 0.10635983f, -0.08789710f, -0.02407049f, -0.16947354f, -0.21524519f, 0.14687652f, -0.07316721f, 0.09902848f, 0.07985928f, 0.10157625f, -0.10682333f, 0.00889317f, 0.02584161f, -0.14028353f, -0.08860470f, 0.15689643f, -0.08060214f, -0.11527494f, -0.13984102f, -0.05929734f, -0.04440115f, 0.08789886f, 0.04567951f, -0.02980601f, -0.02501238f, 0.06359567f, 0.06104633f, -0.17963717f, 0.04731766f, 0.01454747f, 0.00350130f, 0.22940223f, 0.03730202f, -0.02715765f, 0.01064843f, 0.06941661f, 0.04267036f, 0.01030536f, -0.13922938f, 0.05470088f, 0.22659368f, 0.02666532f, 0.06729711f, 0.30226246f, -0.08333619f, 0.02526248f, -0.31727772f, -0.10733817f, 0.00627993f, 0.02677513f, 0.12469948f, 0.08607594f, 0.10962008f, -0.07615894f, -0.08751846f, -0.18226108f, -0.10966562f, -0.12767988f, -0.04753044f, 0.07673257f, -0.05313765f, -0.02703130f, 0.02769816f, -0.14033881f, -0.01726488f, 0.02688120f, -0.06520123f, -0.08463440f, 0.20661423f, -0.01966112f, 0.06233648f, -0.04823799f, 0.01238182f, -0.04250163f, -0.17673677f, 0.02250588f, -0.17289435f, 0.13768430f, -0.03518198f, -0.13105984f, 0.04785666f, 0.01897500f, -0.08129416f, 0.00388079f, 0.06741422f, 0.01845612f, 0.01721728f, -0.11474847f, -0.11766945f, -0.18956921f, -0.13899357f, -0.14125168f, 0.00594057f, 0.05457848f, -0.14838801f, -0.07287882f, 0.07209836f, -0.02403994f, -0.02747212f, 0.10358314f, 0.00712575f, -0.03824107f, -0.05314458f, -0.00836349f, -0.02402310f, 0.02811728f, 0.00764990f, -0.12475782f, 0.10344815f, -0.08356075f, 0.09871315f, -0.03017259f, -0.04392097f, 0.06124793f, 0.11247474f, -0.05792927f, -0.09055102f, 0.00826405f, 0.23191760f, 0.00391025f, 0.06903200f, 0.03571055f, 0.06088851f, 0.09632723f, -0.00069027f, -0.11211185f, -0.06496443f, 0.11849554f, -0.07981157f, -0.16058618f, 0.08624340f, 0.07502790f, -0.07508358f, 0.07482727f, -0.28738380f, 0.10344961f, -0.07715561f, 0.06430376f, 0.04165345f, -0.00900674f, -0.14415794f, -0.02921570f, -0.01824558f, 0.03286309f, 0.06689455f, 0.16918686f, 0.06460997f, 0.00696418f, 0.04488958f, 0.01339707f, -0.03994675f, 0.06152986f, 0.00783474f, 0.27626024f, -0.06380462f, 0.12542409f, -0.06394702f, -0.05028331f, 0.04392807f, 0.05653001f, 0.10606026f, 0.19663850f, 0.01885947f, -0.11876582f, -0.02794453f, -0.07008533f, 0.08220627f, -0.00993907f, 0.09353377f, 0.01425084f, -0.01801932f, -0.00111142f, 0.07969601f, 0.10534045f, -0.09043303f, 0.12636311f, -0.07222454f, 0.10313536f, 0.04045185f, 0.36761316f, -0.06568030f, 0.05045559f, -0.09272958f, -0.17247262f, -0.04622869f, 0.19043013f, -0.03731025f, 0.19747721f, 0.12052858f, 0.38196117f, -0.08368116f, -0.02450113f, 0.12594763f, -0.06782063f, 0.01298525f, -0.01042915f, -0.07812187f, 0.22244673f, 0.13803365f, 0.07628276f, 0.05021964f, 0.04528891f, -0.03724725f, -0.01935396f, 0.05994550f, 0.22333010f, -0.10566406f, -0.05404046f, -0.04016081f, 0.10955891f, -0.08761884f, -0.08480957f, 0.03204310f, -0.09360831f, 0.10036457f, -0.06429472f},
    {-0.06270026f, -0.07810270f, -0.09492109f, 0.05532831f, 0.02783443f, -0.01353252f, 0.00303455f, 0.03867156f, 0.17498968f, 0.10435340f, 0.10051488f, 0.12649456f, 0.18068512f, -0.22782709f, -0.03255719f, 0.14654076f, 0.02023508f, 0.17074678f, 0.01818427f, -0.07298648f, -0.03969462f, -0.13741396f, 0.05659814f, -0.03505811f, 0.03110812f, -0.01185018f, 0.27372979f, -0.11429492f, -0.24743782f, 0.04743040f, -0.04518111f, 0.12625925f, 0.00607359f, 0.09382285f, 0.07565206f, 0.06982604f, -0.00226574f, -0.07481400f, -0.05707055f, 0.11930970f, -0.00038861f, -0.14340631f, 0.06400523f, 0.07421805f, 0.11841268f, 0.00018283f, 0.13845101f, -0.09820299f, -0.03443006f, -0.02090304f, 0.09483151f, -0.02796663f, 0.00425259f, -0.09712753f, -0.10260254f, 0.23368365f, -0.01237902f, 0.08140533f, 0.00143649f, 0.17159143f, -0.03064989f, 0.01416080f, -0.07625189f, 0.08216577f, 0.16541180f, -0.12831243f, -0.15855935f, 0.10870468f, -0.06005398f, -0.05368115f, -0.25888614f, 0.14526628f, -0.24308206f, 0.05140278f, -0.13459975f, 0.12874180f, 0.23299092f, -0.01338099f, 0.01110461f, -0.03307282f, 0.10411766f, -0.14803849f, 0.06001109f, -0.08944181f, 0.02191954f, -0.02596701f, 0.06012409f, -0.15176750f, -0.14733399f, -0.11190288f, 0.09375046f, 0.17046573f, -0.09667035f, 0.07478240f, -0.09900500f, -0.02784479f, 0.04266315f, 0.01656832f, -0.09384209f, 0.01814837f, 0.12745397f, -0.07805044f, -0.00727477f, 0.07850545f, 0.06691945f, -0.10556840f, 0.12169818f, -0.09314327f, 0.03660650f, -0.00429163f, -0.01982864f, -0.08211042f, -0.09452975f, -0.02622161f, 0.01422106f, -0.05498376f, -0.07727197f, -0.10105628f, 0.26561666f, -0.14314254f, 0.08230512f, 0.05457540f, -0.19459427f, 0.07387400f, 0.06757909f, -0.10158249f, -0.03693757f, -0.00221137f, -0.06318417f, -0.00699549f, -0.01043844f, -0.12871232f, 0.19507925f, -0.10810690f, 0.00233130f, -0.06183660f, -0.06494977f, 0.02521943f, -0.17548546f, -0.09810432f, -0.12569978f, 0.02963318f, -0.14849847f, 0.04997293f, -0.00462196f, 0.03091796f, 0.05780024f, -0.21972673f, -0.00705977f, -0.05116280f, 0.06294924f, 0.08348590f, -0.11900670f, -0.03371643f, 0.05524999f, 0.05264257f, 0.04016478f, 0.00303404f, 0.06557438f, 0.04526160f, -0.05892813f, -0.04159106f, -0.10166314f, 0.05577390f, -0.03494958f, -0.02763703f, 0.10355416f, -0.17077484f, 0.14740249f, 0.10152130f, -0.00157537f, 0.05161191f, -0.03787129f, 0.01733711f, 0.11610572f, -0.07852782f, -0.03170583f, -0.07180416f, 0.05602939f, -0.08720822f, -0.21947883f, -0.00664877f, 0.09331359f, -0.08868107f, -0.01365442f, 0.02387626f, 0.03171704f, -0.08751248f, -0.10326259f, 0.10508868f, 0.03338236f, 0.02786998f, -0.11697975f, 0.13588019f, 0.05833872f, 0.11770302f, -0.12356161f, 0.13485761f, -0.07720979f, 0.01988252f, 0.08882600f, -0.13260533f, -0.02745841f, -0.04980476f, -0.02147767f, 0.01105693f, -0.08343350f, -0.05757812f, -0.14339877f, 0.03543429f, 0.00100784f, -0.08716757f, 0.14336296f, 0.01802977f, -0.03350992f, 0.00338295f, -0.06198519f, 0.06659259f, 0.08101660f, -0.10456885f, 0.02588287f, -0.04572216f, 0.19251293f, 0.10441964f, 0.19786438f, -0.00578097f, 0.07254534f, -0.18477524f, -0.05906730f, 0.04662035f, 0.29640761f, -0.13741531f, -0.21187899f, 0.18257697f, 0.10584390f, -0.05134852f, 0.11530134f, 0.01430189f, 0.07286104f, 0.23720664f, -0.04260851f, 0.08070062f, 0.00191920f, -0.02681292f, 0.14629250f, 0.08162300f, -0.22605825f, 0.08677475f, 0.04725942f, 0.05189839f, 0.14910811f, -0.03210223f, 0.06600977f, 0.08146235f, -0.01990773f, -0.04221999f},
    {-0.10274310f, -0.09367293f, -0.04397496f, 0.07325008f, -0.02164355f, 0.18355093f, -0.17776539f, 0.15917290f, -0.00450165f, -0.14335637f, 0.13318814f, -0.11490500f, -0.01244404f, 0.28700718f, -0.10809699f, -0.02004353f, -0.04405555f, 0.04263100f, -0.16864243f, 0.16558430f, -0.06639849f, -0.04566780f, 0.08516723f, 0.13384137f, 0.08256446f, -0.04851223f, -0.05362951f, 0.05228120f, 0.02604156f, -0.02663097f, -0.19625862f, 0.15871520f, 0.09784062f, -0.14436134f, -0.02418888f, -0.03866170f, 0.03253593f, 0.04708501f, -0.03790822f, -0.33188105f, -0.05911602f, -0.04379423f, -0.01336269f, -0.02006825f, -0.02508993f, 0.14283620f, -0.09923200f, 0.03426477f, -0.05052704f, -0.22136693f, 0.15186523f, 0.04974394f, 0.05321136f, 0.18021792f, -0.04402931f, 0.04054663f, -0.08773628f, 0.08529247f, -0.09540119f, -0.02301916f, 0.08292644f, -0.01614075f, 0.23683235f, 0.10622280f, -0.05765369f, 0.09450398f, -0.02625864f, 0.01804136f, -0.01527337f, -0.15229965f, -0.01142120f, -0.00927391f, -0.06938660f, 0.28280293f, -0.11581222f, 0.01540370f, -0.00305755f, 0.00058292f, -0.09175216f, -0.11831403f, 0.00077518f, 0.09697188f, -0.10025948f, -0.03142122f, -0.05448216f, -0.06619422f, -0.05996180f, -0.00994211f, 0.01414540f, -0.08148684f, -0.12379588f, -0.00994450f, 0.02277108f, -0.17300104f, 0.05873531f, -0.08804719f, 0.20739477f, -0.00206276f, -0.02188898f, 0.07578943f, -0.03337426f, 0.05199555f, -0.12664003f, 0.08499437f, 0.10873940f, 0.08457404f, -0.17228905f, 0.03698783f, 0.07430518f, 0.08199350f, -0.01814160f, -0.07635782f, -0.07202937f, -0.05213819f, 0.02942449f, 0.00800219f, 0.06749256f, -0.01111113f, 0.09812691f, 0.02016025f, 0.00900592f, -0.06237823f, 0.05812201f, -0.32968586f, 0.10285192f, 0.11129012f, -0.10184960f, 0.03793495f, 0.05804727f, -0.16791094f, 0.13195883f, 0.00703227f, 0.00631034f, -0.06908095f, -0.17633439f, -0.12699248f, 0.03767230f, -0.41078844f, 0.11273465f, 0.13801287f, -0.08835999f, 0.19146364f, -0.17785401f, -0.21302293f, -0.02215213f, -0.05508274f, 0.15950992f, -0.15111810f, 0.14093421f, -0.06807756f, 0.02549979f, -0.02597212f, -0.04547959f, 0.03053593f, -0.11097638f, 0.03069602f, -0.13805220f, 0.07146116f, -0.11249811f, -0.07348594f, -0.11905880f, -0.14761060f, 0.07573427f, -0.06078089f, -0.09524914f, 0.01336705f, 0.08989350f, -0.03439764f, 0.12575997f, 0.05685516f, 0.07613585f, 0.05193062f, 0.01620229f, 0.10192551f, 0.02998499f, -0.02303446f, -0.01949800f, -0.08115639f, 0.01482193f, 0.13909620f, 0.10729632f, 0.01022928f, 0.13102148f, 0.03396194f, -0.11839676f, -0.06009481f, 0.03196691f, -0.03934790f, 0.01979365f, -0.05637182f, -0.08626444f, -0.05770285f, 0.06094919f, -0.13912561f, -0.00341438f, -0.02456054f, -0.15718613f, 0.10254590f, -0.01175797f, 0.12320764f, -0.07175974f, 0.08106029f, 0.05482493f, 0.11960669f, 0.07057923f, -0.03930542f, -0.11959850f, 0.06344229f, -0.05706338f, 0.10285133f, 0.07649463f, -0.06330672f, -0.07821867f, 0.07171559f, -0.07772036f, 0.07169467f, 0.16713456f, -0.05399063f, -0.02001923f, -0.11847024f, -0.06039363f, 0.04132977f, -0.13098609f, 0.10842119f, 0.01734221f, -0.07574042f, -0.03681825f, 0.18175750f, 0.00683191f, 0.13630396f, 0.02639164f, -0.15012501f, -0.14814750f, 0.04945083f, 0.12079709f, 0.13076444f, 0.03405435f, -0.03433103f, -0.02588102f, -0.07012255f, -0.01509701f, 0.08797044f, -0.13182533f, -0.03147913f, 0.15936646f, -0.00533941f, -0.02971804f, -0.09010049f, -0.01254129f, -0.07079749f, -0.03240877f, -0.01301855f, 0.05362783f, -0.12826478f, 0.03297681f, 0.08740882f},
    {0.08681779f, -0.02316007f, -0.13923815f, 0.00063490f, -0.01972803f, -0.06298239f, 0.01644504f, -0.09513630f, 0.03962783f, 0.10166270f, 0.04774688f, -0.06079409f, -0.02131274f, 0.27699826f, 0.02892593f, -0.04467370f, 0.01354762f, 0.06719451f, 0.10860653f, 0.00492432f, 0.11575241f, 0.08817964f, -0.00131548f, -0.11074124f, 0.04149642f, -0.26146184f, 0.07754130f, 0.01614240f, 0.00701993f, 0.13419575f, -0.07679626f, 0.02829064f, -0.06360376f, 0.04168207f, 0.03997749f, -0.01245615f, -0.10397573f, 0.04817458f, 0.01606048f, 0.07460054f, 0.12774621f, -0.01524913f, 0.04350171f, -0.03182063f, 0.04687470f, 0.04914284f, -0.02015168f, 0.01934183f, -0.13285467f, -0.00777004f, -0.11953057f, -0.05902907f, 0.03172580f, -0.03009928f, 0.05470043f, 0.07231260f, 0.13431923f, -0.01403453f, 0.03673345f, -0.02574352f, 0.03536646f, -0.20194639f, 0.11783161f, -0.03285255f, 0.04583050f, -0.20831058f, 0.17239323f, -0.10006393f, -0.00976785f, 0.06935183f, -0.01353474f, 0.04736255f, -0.02088366f, -0.02648235f, 0.04643081f, 0.07979864f, 0.03464492f, 0.19656669f, -0.07341232f, -0.05847129f, -0.10867705f, 0.13473684f, -0.06763720f, 0.06995574f, -0.07652081f, 0.08862410f, -0.02290571f, -0.14208226f, -0.12877090f, -0.05177999f, -0.05054242f, 0.11475398f, -0.09681686f, 0.01586447f, -0.00504787f, 0.00007774f, -0.20950765f, -0.09998516f, -0.01028582f, -0.06859388f, 0.22995920f, -0.01177121f, 0.06648540f, -0.13208047f, -0.05005663f, -0.00397123f, -0.03105597f, -0.15235118f, -0.02155142f, -0.03607469f, 0.01445763f, 0.08437764f, 0.02857962f, 0.00021534f, -0.02011460f, 0.14076923f, -0.01217129f, -0.01769181f, 0.08197981f, -0.01251856f, -0.09772702f, 0.06321388f, 0.02779919f, -0.03554177f, 0.04572606f, -0.18115472f, 0.13984215f, -0.17295636f, -0.16594631f, -0.01736563f, 0.17471842f, -0.03312768f, 0.18611996f, 0.15307928f, -0.05786002f, -0.02677701f, -0.06319834f, -0.10375801f, 0.17584478f, -0.05303968f, -0.02498254f, -0.13546184f, -0.16712483f, 0.01006057f, -0.18539687f, 0.17108766f, -0.09566705f, 0.14051803f, -0.08376002f, -0.16240657f, -0.22932955f, 0.05780792f, 0.00524426f, -0.15409587f, -0.04953995f, 0.14197591f, -0.04233540f, 0.15709184f, 0.28812954f, -0.02298330f, 0.11883895f, 0.12972824f, 0.09346777f, -0.06929853f, -0.02338651f, -0.05590800f, 0.08664271f, 0.11336720f, 0.01300121f, 0.20646189f, 0.17542823f, 0.00133326f, 0.03772461f, 0.10444629f, 0.01500654f, 0.04442267f, -0.06456499f, 0.07299359f, -0.03824698f, -0.10745124f, 0.17680244f, -0.01804456f, -0.07836406f, -0.14872763f, -0.02311115f, -0.07774188f, 0.06479855f, 0.05867759f, 0.13439503f, 0.09115992f, -0.03592347f, 0.14987651f, -0.04550571f, -0.10495631f, 0.18761841f, -0.05913818f, 0.03384523f, 0.13337813f, -0.10624942f, -0.04903180f, -0.11585876f, -0.07159177f, -0.08971144f, 0.07011284f, 0.10853684f, 0.09557623f, 0.20808898f, 0.05231646f, 0.12452564f, 0.05188946f, 0.06326380f, -0.09591884f, -0.15398367f, -0.04145111f, 0.00934039f, 0.03328493f, -0.12805854f, -0.02587854f, -0.04243952f, -0.05137456f, 0.03502450f, 0.09607951f, 0.07500400f, 0.21792466f, -0.22314527f, 0.05576443f, 0.09796161f, 0.07100729f, -0.00668502f, -0.01405640f, 0.02136300f, -0.10215765f, -0.17627621f, -0.16596744f, 0.08210449f, -0.06021259f, -0.03666289f, -0.06224117f, -0.05737227f, -0.03940647f, 0.08302066f, 0.20622994f, 0.04321791f, 0.08609700f, -0.06902069f, -0.01500737f, 0.10940681f, -0.07084289f, -0.04926964f, -0.18781778f, 0.04634567f, -0.00138331f, -0.04041147f, -0.01288162f, -0.03426508f, 0.07005307f},
    {-0.23601027f, 0.16596026f, -0.04559260f, -0.08363509f, 0.12732703f, 0.08873153f, 0.09954099f, 0.03268945f, -0.02440067f, 0.03769629f, -0.03526847f, 0.00388821f, -0.04308064f, -0.05377071f, -0.03149775f, 0.19603309f, 0.12470694f, -0.00460528f, -0.15818672f, 0.01729424f, 0.02674552f, 0.11039354f, 0.14520173f, 0.06042233f, 0.23217253f, -0.04366062f, 0.09578717f, 0.05322055f, 0.08037280f, -0.07265824f, 0.04855745f, -0.04597743f, -0.11366636f, -0.07221344f, 0.02940331f, 0.22013875f, 0.00541211f, -0.09034540f, -0.02932057f, -0.19532678f, 0.04218923f, -0.01621443f, -0.01029710f, -0.32390308f, 0.05150663f, -0.09021887f, 0.14997698f, 0.04057565f, 0.08210389f, 0.00104453f, 0.00818839f, -0.09437460f, 0.15171002f, -0.20400741f, -0.16418506f, 0.07102976f, -0.03737736f, -0.12063362f, 0.03460160f, 0.06117610f, 0.03425967f, 0.22999039f, 0.00951264f, -0.01634188f, -0.14402468f, -0.17210899f, -0.03471226f, 0.05585620f, 0.00815458f, 0.21825358f, 0.09524399f, 0.06852858f, -0.05317043f, -0.03029639f, 0.05730293f, 0.14970945f, 0.09198317f, -0.17693303f, -0.07878779f, -0.05379468f, 0.04522544f, 0.08408855f, -0.04459399f, 0.00122540f, 0.05685938f, -0.19457730f, 0.13049966f, 0.20523567f, -0.16676373f, -0.08205094f, -0.10649931f, 0.10935340f, -0.00754314f, -0.22984331f, -0.07793543f, -0.06911995f, 0.04581303f, -0.05159241f, 0.06565495f, 0.10787227f, 0.26313006f, -0.00923794f, 0.03017384f, -0.18174135f, -0.04813064f, -0.04419498f, 0.10684741f, 0.07072969f, 0.00647025f, -0.01058115f, 0.03505288f, -0.05863963f, -0.06071424f, 0.07034082f, -0.00893567f, 0.13233245f, -0.10876467f, 0.13366261f, -0.04022752f, 0.08160279f, -0.01214626f, -0.13908610f, 0.10355763f, -0.06053967f, 0.06162547f, -0.08754348f, -0.05783677f, 0.05267640f, 0.04497205f, -0.03499432f, 0.03708845f, 0.02368799f, -0.17580681f, -0.08918081f, 0.08994458f, 0.12043161f, 0.00843247f, 0.06283590f, 0.12605621f, 0.05445052f, -0.08555641f, -0.14473205f, -0.03152718f, 0.17367426f, -0.02674956f, 0.03713132f, -0.08740750f, -0.11131209f, -0.02458774f, -0.13816226f, 0.03635369f, 0.00282137f, -0.19973175f, -0.00465686f, -0.04216465f, -0.10957984f, -0.03161676f, 0.10083967f, -0.07989920f, -0.01618413f, -0.06930413f, -0.16865323f, 0.03846821f, -0.07775411f, -0.07930719f, 0.22581782f, 0.05690511f, -0.01441171f, 0.06787984f, 0.06398913f, 0.06703948f, -0.07946907f, -0.02870806f, 0.03474367f, 0.00060428f, 0.13725835f, -0.07691305f, -0.03706319f, 0.02239115f, 0.10705958f, 0.09783743f, 0.09188909f, -0.00169902f, -0.10609791f, -0.16293063f, 0.14109031f, -0.09204837f, 0.11056185f, -0.04213201f, -0.08996668f, -0.03662346f, 0.04062935f, -0.01361300f, 0.05703630f, -0.08841259f, 0.04147786f, 0.09558786f, 0.02384639f, 0.07828041f, 0.01296488f, -0.08916465f, -0.02754393f, 0.14426017f, 0.00605620f, -0.03270691f, -0.21446009f, -0.16672975f, 0.11527184f, -0.03838638f, -0.19354173f, 0.11906749f, -0.12070174f, -0.05851020f, -0.16422377f, -0.10791842f, -0.00623441f, -0.01934702f, 0.07606290f, 0.05000095f, -0.01919933f, 0.13158739f, 0.12225245f, -0.04885258f, 0.14348630f, -0.13232979f, -0.08614000f, -0.06450237f, 0.03095841f, 0.00094915f, -0.05050014f, 0.18481213f, 0.06638679f, -0.02398379f, -0.03814678f, -0.10986219f, -0.01766571f, -0.03232676f, -0.00492079f, -0.05116146f, -0.03503585f, -0.07122612f, -0.08278690f, 0.01647830f, 0.04078811f, 0.03850365f, -0.03850241f, -0.10378355f, -0.15760008f, 0.18286913f, 0.11780515f, 0.12077532f, 0.03892418f, -0.00464985f, 0.15017852f, 0.12158186f, 0.01030993f},
    {0.17891613f, -0.00354352f, 0.03182216f, 0.19936104f, 0.21688558f, -0.04716965f, -0.07061454f, 0.07047664f, 0.09891153f, 0.06881506f, 0.06451758f, -0.00339042f, 0.21527320f, 0.08326706f, 0.05890058f, 0.02051906f, -0.04896677f, 0.00722683f, -0.02942672f, 0.04205550f, 0.08936166f, 0.19837324f, -0.03868311f, 0.04517910f, -0.07224543f, -0.08877482f, 0.08197851f, 0.01982629f, 0.22644659f, -0.11246993f, 0.14462677f, -0.05469117f, -0.11002549f, -0.00009626f, 0.13702704f, -0.00322178f, 0.08549683f, 0.14243070f, -0.07272972f, -0.02217886f, 0.17861289f, 0.00867376f, 0.04718940f, 0.23713771f, 0.04579828f, -0.00974221f, 0.05469158f, 0.07394253f, -0.10864798f, -0.15820075f, -0.06916213f, 0.05420673f, 0.11109362f, -0.08472314f, -0.08521210f, -0.12284561f, 0.08720172f, -0.00246351f, -0.08014705f, -0.10673705f, 0.00082754f, -0.02530167f, -0.12673968f, -0.02316877f, 0.13046901f, 0.00201411f, 0.06442179f, 0.11107506f, -0.11986036f, 0.18380272f, 0.09327040f, -0.09191238f, -0.03199315f, 0.02517070f, -0.11852197f, 0.09697495f, 0.10913874f, -0.24072231f, 0.12922990f, 0.08008640f, -0.03677282f, -0.14393334f, 0.02188821f, 0.05067494f, -0.01409893f, 0.17947597f, -0.01329180f, 0.19333356f, 0.06528615f, -0.14267458f, -0.02979642f, -0.11257388f, -0.02511910f, 0.02325639f, -0.16256353f, 0.03919941f, 0.07430892f, 0.09212207f, -0.04863437f, 0.04921245f, 0.09431159f, -0.07838246f, -0.04339420f, 0.10130235f, 0.00084878f, -0.16921525f, -0.00740824f, -0.05954755f, 0.09466387f, 0.04603509f, 0.07208859f, -0.08122054f, 0.17492901f, -0.16479201f, -0.12208228f, 0.06128572f, 0.08113623f, -0.00336480f, -0.02721555f, 0.14978415f, 0.09855077f, 0.03764610f, 0.06103315f, -0.03822691f, -0.01577614f, -0.05609970f, 0.10205860f, 0.06999364f, 0.18365329f, -0.17831587f, 0.18643338f, 0.15780623f, 0.08828118f, 0.09680186f, 0.05969152f, -0.08514684f, -0.02615771f, 0.14610409f, 0.11583453f, 0.03257588f, 0.06991783f, -0.04468423f, 0.13032250f, 0.12357842f, -0.10763747f, -0.08529515f, 0.13135499f, -0.06008842f, -0.04014362f, 0.02388208f, -0.09714934f, 0.02276103f, 0.01407469f, 0.15146696f, -0.03864782f, -0.01513265f, -0.07675903f, -0.08014316f, -0.13042437f, -0.02281549f, 0.00334602f, 0.04228473f, 0.00875557f, -0.10939989f, 0.03218257f, -0.04379516f, 0.01021740f, -0.04638074f, 0.12692145f, -0.04872540f, -0.03553487f, -0.06035420f, -0.00372173f, 0.15116834f, -0.04443523f, 0.12805711f, 0.01852752f, -0.05264263f, 0.02792402f, 0.05604094f, -0.06707998f, 0.11756809f, -0.17536063f, -0.00633376f, 0.03135096f, -0.09716662f, 0.09641476f, -0.01936314f, -0.10141492f, -0.10928712f, 0.05621158f, 0.08626030f, -0.03564845f, -0.20853661f, 0.08406493f, -0.17866150f, -0.07094315f, -0.13958836f, -0.18657530f, -0.04468184f, -0.16201043f, -0.02177723f, -0.20562208f, -0.24699097f, 0.02379054f, 0.06725967f, -0.12183106f, 0.17924411f, 0.04000949f, 0.14565629f, -0.02284196f, -0.02999010f, 0.00558861f, 0.05211239f, -0.05343597f, -0.07782232f, -0.15746127f, -0.08446845f, 0.07613131f, -0.11497744f, 0.07758344f, -0.05474104f, -0.08325142f, 0.03182215f, 0.10827662f, 0.09438111f, -0.22084873f, 0.05477005f, 0.03322399f, 0.00398217f, 0.08398212f, -0.03461783f, 0.13409813f, 0.00576575f, 0.06493877f, -0.10993306f, 0.10021868f, 0.10537242f, 0.02026361f, -0.02588891f, -0.08352991f, -0.02788672f, -0.04481813f, 0.01650926f, 0.02193881f, -0.01252974f, 0.01895680f, -0.08395251f, 0.09891285f, 0.01679012f, 0.18743713f, 0.04793980f, 0.00069662f, 0.20952174f, -0.11966018f, 0.00352462f},
    {-0.08002402f, -0.07348171f, -0.00690945f, -0.06307975f, -0.06107483f, -0.14895108f, 0.19005189f, -0.17127213f, 0.15209431f, -0.06495757f, -0.07942464f, 0.11798430f, 0.20694247f, 0.00789101f, 0.05133363f, -0.11719244f, 0.25280904f, -0.03764784f, -0.14728252f, 0.03527019f, -0.05443577f, 0.22960146f, -0.03205345f, 0.00360168f, -0.14512476f, -0.00187160f, -0.21736234f, -0.08773365f, -0.12981357f, 0.05488668f, 0.07833361f, 0.01068257f, 0.03338708f, -0.08189120f, 0.07191452f, 0.09384838f, -0.02784100f, -0.09741053f, 0.00408132f, -0.05984109f, 0.02355640f, 0.11035451f, -0.01148443f, 0.07702540f, -0.13351800f, -0.11136003f, -0.09724237f, 0.01859171f, 0.02846290f, 0.00290082f, 0.09718524f, -0.04186803f, -0.03434041f, 0.02805593f, -0.10116611f, 0.02994026f, -0.06587119f, 0.01967715f, 0.06174378f, 0.02226982f, 0.05204561f, 0.05609691f, 0.03824518f, -0.07423578f, 0.02072225f, -0.15954991f, 0.00879994f, -0.09130481f, 0.00371713f, -0.21204772f, -0.06070204f, 0.09104508f, 0.04628365f, -0.13226708f, 0.12354803f, 0.02747166f, 0.05728691f, 0.10979526f, 0.11607439f, 0.16724293f, -0.03438549f, -0.07110001f, 0.25665386f, -0.04702909f, -0.04062498f, -0.15474330f, -0.08068371f, -0.08288250f, -0.03827762f, 0.33148249f, 0.02918332f, 0.12704381f, -0.01985257f, 0.11447488f, 0.00661277f, 0.02389317f, -0.15513566f, -0.11541553f, -0.04659456f, -0.04975179f, -0.05107786f, -0.05276841f, 0.06836565f, 0.07197317f, 0.03407576f, -0.26007887f, 0.06066918f, 0.09678382f, 0.03443768f, 0.05838752f, -0.07232950f, -0.14995673f, -0.15566860f, -0.00822062f, 0.01838018f, -0.03687488f, -0.08963578f, 0.07679158f, 0.09583832f, 0.07898728f, 0.11348926f, 0.00966504f, -0.15164875f, 0.11138739f, -0.14070718f, -0.00665756f, -0.10067167f, -0.13232030f, -0.01012359f, 0.04835962f, -0.03874925f, -0.06945119f, 0.02225739f, -0.03473291f, 0.08316432f, 0.02067845f, -0.01153228f, 0.15943043f, -0.20563548f, 0.02026100f, -0.12618166f, -0.03365845f, -0.09563642f, 0.06009975f, -0.10395754f, 0.07660010f, -0.12799580f, -0.11178629f, -0.00293403f, -0.05791423f, 0.02323015f, 0.02599430f, -0.22718259f, -0.07753818f, -0.06006793f, 0.23324473f, 0.03440728f, -0.05049556f, 0.02729683f, 0.04624228f, -0.13757028f, 0.01370766f, 0.07425117f, -0.06799164f, 0.04811633f, 0.09732892f, 0.04531024f, -0.09636734f, -0.06253292f, 0.16205095f, -0.12072095f, -0.08199901f, 0.04187401f, -0.08222688f, -0.11323359f, -0.02252825f, -0.04315346f, 0.10917156f, -0.04684384f, 0.10520975f, 0.03741586f, -0.01754206f, 0.09580303f, -0.10865360f, -0.11272924f, 0.23409480f, -0.00627968f, 0.09424895f, 0.16103705f, 0.10403863f, 0.12583793f, 0.02615738f, 0.02326388f, 0.10336715f, 0.01483946f, -0.11499714f, -0.09097029f, 0.02260656f, 0.03807320f, 0.14975037f, -0.11951795f, -0.12818964f, -0.08637304f, -0.07507019f, -0.04433619f, -0.10554137f, -0.04654143f, 0.06664364f, 0.11243063f, 0.05895174f, 0.05347618f, 0.03076024f, -0.07583350f, -0.02284878f, 0.19190026f, -0.09563868f, -0.17431821f, 0.03624475f, 0.01035436f, -0.01209779f, -0.04276109f, 0.00052540f, 0.04297032f, -0.04270529f, -0.07966807f, -0.00664179f, -0.11570527f, 0.05824113f, -0.15615298f, 0.20335084f, 0.07082557f, -0.03467042f, 0.08687061f, 0.11455863f, 0.00871783f, 0.10197821f, 0.10983086f, 0.08415958f, 0.19315619f, 0.08991257f, -0.01884832f, 0.05472570f, 0.02362982f, 0.04217946f, 0.02630288f, -0.12617798f, 0.00377513f, -0.05431613f, 0.10410591f, 0.07250960f, -0.05130285f, -0.00886150f, 0.01715134f, -0.19242948f, -0.15676997f, -0.01169359f},
    {0.02246089f, 0.06665227f, -0.13623598f, 0.17720886f, 0.06885492f, -0.00383445f, 0.13098918f, 0.15783583f, 0.09470224f, 0.05480669f, 0.02464760f, -0.03750307f, 0.10297625f, 0.02349058f, -0.18139090f, 0.03281154f, 0.01776100f, 0.08534002f, -0.00046840f, -0.06159701f, 0.11546451f, 0.05783464f, 0.03298454f, -0.05265884f, 0.03425361f, -0.08275306f, 0.08651395f, 0.04168367f, 0.11547292f, 0.19410957f, -0.05586391f, -0.10726728f, -0.05021482f, -0.00176233f, -0.07925246f, 0.00479130f, 0.13105294f, 0.03788709f, 0.03001399f, 0.19973533f, 0.02756868f, 0.03303560f, -0.08430761f, 0.02185959f, 0.04203478f, -0.27713665f, -0.03607603f, 0.04443170f, 0.03950557f, 0.07383558f, 0.00636727f, -0.00227224f, 0.01493544f, -0.11040532f, -0.04604025f, 0.00818902f, -0.04621229f, 0.19983952f, -0.05802736f, -0.10531574f, 0.02641778f, 0.12580475f, 0.02887670f, -0.08201790f, -0.06806480f, 0.02618986f, 0.09681076f, -0.01708225f, 0.16568595f, -0.04048608f, 0.22142816f, 0.00942101f, 0.07510188f, -0.09782486f, -0.23489678f, -0.08586143f, 0.14869978f, -0.02232615f, -0.00955498f, 0.16507991f, 0.11991290f, -0.07253773f, 0.04266576f, -0.03027739f, -0.17284648f, -0.19340774f, -0.01028896f, 0.08818248f, 0.05702872f, -0.07803559f, 0.05391152f, 0.10166185f, -0.13191721f, -0.13194755f, 0.00768222f, 0.07327185f, 0.09534131f, 0.07505282f, 0.10330830f, 0.07551444f, -0.05602112f, -0.12999400f, -0.04606277f, -0.11529006f, -0.08101248f, 0.05039014f, 0.13670259f, 0.17384103f, -0.05505645f, 0.08705111f, -0.01642523f, 0.00290201f, -0.01991227f, -0.10054660f, -0.12750683f, -0.06628458f, 0.07363478f, -0.00074657f, 0.27380834f, 0.00898684f, 0.11081428f, -0.00576735f, 0.21514395f, 0.05281386f, -0.08944240f, -0.09939322f, -0.08460050f, 0.10280615f, 0.05255804f, 0.08016476f, 0.16706928f, -0.00439284f, 0.13111568f, 0.01974198f, 0.12294861f, 0.14057454f, -0.14204019f, 0.05098786f, -0.26020537f, 0.09904401f, 0.08911712f, -0.26041048f, 0.05494828f, -0.17523871f, -0.02303661f, -0.03149299f, 0.12202235f, -0.13206608f, 0.09227071f, 0.05258378f, -0.08745024f, 0.00501393f, 0.09309651f, -0.09874199f, -0.03355743f, 0.08590890f, 0.08061092f, -0.08607706f, 0.09499451f, -0.06232564f, 0.05523902f, 0.01545078f, -0.17958946f, -0.04741900f, 0.01692299f, -0.01100709f, -0.31893409f, -0.01293780f, -0.06209525f, -0.00496023f, 0.18735484f, -0.19149484f, 0.04203420f, 0.05630876f, 0.19117079f, -0.06239335f, -0.08885370f, -0.06658196f, -0.04265090f, 0.18345403f, -0.08875307f, 0.06434538f, 0.05948830f, 0.04179960f, 0.10853454f, -0.16426935f, 0.22268045f, -0.00193823f, -0.07113186f, 0.10598834f, 0.07431863f, -0.14397234f, 0.09373443f, -0.03017845f, -0.02203346f, 0.01235939f, -0.05818004f, 0.05645946f, 0.28548956f, 0.06436562f, -0.17341402f, 0.09042965f, 0.02384221f, 0.01161302f, 0.12339974f, -0.07112265f, 0.11333869f, 0.22396352f, -0.12765297f, -0.10245487f, -0.00771147f, 0.06820490f, -0.19077131f, 0.01559988f, -0.17936325f, 0.18451480f, 0.00143817f, -0.13702408f, -0.20444740f, -0.08095113f, -0.06501230f, -0.08408517f, -0.07092778f, -0.08731151f, -0.17404641f, -0.14459728f, -0.09300237f, -0.03511467f, 0.04142012f, -0.03944793f, 0.00682866f, 0.00296346f, -0.03455504f, -0.06652610f, -0.17286286f, 0.12046921f, 0.12293289f, -0.20717809f, 0.19553743f, -0.00226911f, 0.13005958f, 0.00221368f, 0.08810485f, 0.08226365f, -0.01838651f, 0.06036056f, -0.01050233f, -0.01711563f, 0.03866719f, 0.04866726f, 0.12097979f, 0.04130147f, -0.12277830f, 0.07340805f, 0.02303245f, -0.04008686f},
    {-0.02178647f, -0.06442719f, 0.15351569f, -0.04713816f, 0.18150710f, 0.11635626f, -0.12659258f, -0.10811693f, -0.11232234f, 0.17415877f, 0.16968808f, 0.03200610f, -0.01216918f, 0.03186620f, 0.05370755f, -0.02499619f, 0.05803880f, -0.00127210f, 0.13720807f, 0.06353465f, -0.02642532f, 0.06311361f, -0.07430729f, 0.05829464f, 0.05088668f, -0.01206372f, 0.15536178f, -0.09052915f, 0.03916237f, 0.04182010f, 0.09304022f, -0.20746851f, -0.06001048f, -0.09413915f, -0.07090295f, 0.19331005f, 0.11079772f, 0.26224921f, 0.01572517f, 0.15581037f, 0.12833705f, -0.01184513f, -0.11491806f, 0.09763599f, -0.15471442f, 0.12049689f, -0.06145421f, 0.02991503f, 0.06297897f, -0.00162503f, 0.04376242f, 0.06275476f, -0.03269710f, 0.00114592f, -0.08227680f, 0.05782627f, -0.15554246f, -0.07678709f, -0.01557845f, 0.05146426f, -0.08013089f, -0.00965719f, -0.05352636f, 0.00425964f, -0.11795213f, 0.13218237f, -0.04747409f, 0.02394445f, -0.04267477f, -0.16527363f, 0.14480462f, -0.22506908f, -0.02271439f, -0.11447332f, -0.21171316f, 0.04585786f, -0.11907373f, -0.03460607f, -0.14968985f, -0.13179341f, -0.21260616f, -0.05607994f, -0.12037093f, -0.01416424f, 0.05679893f, -0.25135715f, -0.09129683f, 0.00376146f, -0.14700716f, -0.12828204f, 0.20126695f, -0.11241131f, -0.00859582f, 0.17564447f, -0.07404976f, -0.05583105f, -0.03131359f, 0.11961698f, 0.03865308f, -0.15490066f, -0.04540606f, 0.11691263f, 0.07574587f, -0.13325326f, 0.07193397f, 0.00953112f, 0.09502535f, 0.05910910f, 0.08808487f, 0.06828973f, 0.11241561f, 0.13470468f, -0.08919719f, 0.10090441f, 0.03284083f, -0.15436468f, 0.11137633f, -0.10833181f, 0.06806363f, 0.01313112f, 0.22670066f, -0.15532679f, 0.16201185f, -0.22511392f, 0.19831484f, -0.07368487f, -0.13960518f, 0.11060967f, -0.21740031f, -0.23808218f, 0.25444256f, 0.21116910f, 0.10880051f, -0.26879881f, 0.15635670f, 0.06075743f, -0.07724039f, -0.08211051f, -0.07620233f, -0.08273555f, 0.00916787f, 0.09933933f, 0.01607180f, -0.11318060f, 0.02707362f, 0.16755792f, -0.13080897f, -0.10551232f, 0.14684849f, 0.08277730f, 0.02770302f, 0.11966432f, 0.06185734f, -0.16615441f, -0.01604923f, 0.06072502f, -0.09502001f, -0.05392889f, -0.13615378f, 0.11621954f, -0.00284178f, -0.08580582f, -0.36427286f, 0.08964800f, -0.09556328f, -0.20950318f, 0.04610335f, -0.01285894f, -0.02587063f, -0.14019204f, 0.04249852f, 0.00385928f, 0.09813285f, -0.00826833f, 0.16446671f, 0.01882636f, -0.01556114f, -0.01040660f, 0.14075005f, 0.13023576f, -0.02099985f, 0.09866513f, -0.00246245f, 0.19345718f, 0.13452551f, 0.10840153f, 0.14793826f, 0.07257390f, -0.12150155f, 0.00477838f, 0.22492910f, 0.01201259f, 0.19098778f, -0.08491704f, 0.06532777f, 0.09850209f, 0.02068654f, 0.00295005f, -0.16305635f, 0.05824083f, 0.16478526f, -0.10886825f, -0.08871650f, -0.03725113f, 0.03517609f, 0.07862691f, 0.11129788f, 0.10250232f, -0.02455754f, 0.11369661f, -0.05983724f, -0.05574660f, -0.02737166f, 0.00331940f, -0.01188115f, 0.02720988f, 0.05845804f, -0.19092904f, 0.01684986f, -0.21212411f, -0.06277538f, -0.01928824f, -0.00228468f, 0.02350398f, -0.06106933f, 0.09927258f, 0.05790702f, -0.21824300f, 0.06733327f, 0.02936681f, -0.14356397f, -0.10040372f, -0.16081230f, -0.14752360f, 0.11940102f, -0.05337124f, 0.14110445f, 0.12883200f, 0.04930774f, 0.03557570f, -0.02053443f, -0.04271680f, 0.05832044f, -0.09455085f, -0.10762279f, 0.03466208f, -0.09790111f, -0.08344180f, -0.08308750f, -0.02941670f, -0.00258719f, 0.06503920f, -0.09131487f, 0.29846030f, 0.00991684f, -0.10399045f},
    {0.14826808f, 0.11406238f, 0.04138642f, 0.12063994f, 0.10634794f, -0.01773224f, 0.10120352f, -0.03991457f, 0.08484687f, -0.05864529f, 0.14190691f, 0.00058997f, -0.06722065f, 0.11024758f, -0.03911595f, -0.04378042f, 0.10121571f, 0.08461560f, 0.08806063f, -0.05719921f, -0.00643384f, -0.04248216f, -0.00439178f, 0.21112388f, -0.03755054f, -0.02598131f, -0.16809387f, 0.10403383f, 0.25365050f, 0.08340683f, 0.17852989f, 0.01668809f, 0.03964155f, -0.11628268f, -0.19282897f, -0.18244752f, -0.01799815f, -0.04544034f, 0.07323729f, -0.15870351f, 0.09285891f, -0.00310030f, 0.04769615f, -0.17072749f, -0.06804349f, 0.04165401f, 0.11577444f, 0.13810892f, -0.10120975f, -0.12724560f, -0.00712234f, -0.13691455f, -0.07059312f, 0.03209545f, 0.03526972f, -0.07272598f, 0.04594507f, -0.05318952f, -0.05589041f, -0.11417728f, -0.05381458f, -0.10157509f, -0.03170521f, 0.05289495f, 0.14549432f, 0.00182796f, 0.22957077f, 0.01786740f, 0.19990387f, 0.12239353f, 0.04361220f, -0.12994293f, -0.01463841f, 0.00638236f, -0.22091565f, 0.02620778f, 0.09110910f, -0.20745511f, -0.17784246f, 0.04282309f, 0.00639321f, 0.17704113f, -0.03686361f, -0.06742704f, -0.06487377f, 0.08555387f, -0.02394300f, 0.06524185f, -0.12551393f, -0.12937304f, 0.22903186f, 0.02577675f, 0.03248086f, -0.05663271f, -0.08624654f, -0.09332473f, 0.03072311f, -0.04235085f, -0.06959670f, -0.12012511f, -0.05351802f, 0.09309658f, 0.08919584f, -0.01812236f, 0.09751045f, 0.00717881f, -0.05277690f, -0.09225189f, -0.06977360f, 0.11823010f, -0.02982367f, -0.15118485f, -0.10992650f, -0.11374057f, 0.08749194f, 0.17675525f, -0.00786425f, 0.04770099f, -0.02636663f, -0.01360605f, -0.15223954f, -0.01420613f, -0.21556695f, 0.01261470f, 0.02147149f, 0.06488376f, -0.09799106f, 0.10470560f, 0.00698037f, 0.00026274f, 0.05559852f, -0.07557963f, -0.05256551f, 0.09563780f, 0.18987846f, 0.08065373f, 0.01999913f, 0.05627965f, 0.05690006f, 0.00867946f, 0.13591813f, -0.02861832f, -0.04103121f, -0.17558544f, -0.00469771f, -0.03767659f, 0.10201339f, -0.00734817f, -0.08849163f, 0.17551912f, -0.06561542f, -0.01980148f, -0.21280518f, 0.13215999f, 0.04196933f, -0.03489259f, -0.05336651f, 0.03018511f, -0.07003274f, -0.05637235f, -0.04791039f, -0.10576280f, 0.01727411f, 0.15512535f, 0.00053405f, -0.04770890f, -0.14903411f, -0.05916276f, 0.10590865f, 0.04611815f, 0.05484016f, 0.32369562f, -0.04839281f, -0.05625622f, -0.04280191f, 0.04246622f, 0.11544024f, 0.01171753f, -0.04063872f, -0.13800463f, 0.11944165f, -0.01364214f, -0.11110495f, -0.16608305f, -0.00112594f, -0.12568127f, 0.09669648f, -0.20288493f, 0.04203194f, 0.03981086f, 0.12547014f, 0.08813760f, 0.02659697f, 0.14725445f, 0.12560408f, 0.10338181f, -0.10987732f, 0.02041069f, -0.11576776f, -0.06945725f, 0.03594646f, -0.11218183f, -0.10671771f, -0.11525443f, -0.07431746f, -0.01853616f, 0.09915593f, -0.00250311f, 0.13934013f, -0.01495722f, 0.07062380f, 0.13252732f, -0.06260106f, 0.05959013f, -0.03148820f, -0.00979303f, -0.14208583f, -0.11476158f, 0.02413146f, 0.04895360f, -0.07096307f, 0.11709177f, 0.17324057f, -0.23274964f, 0.07149868f, -0.17912579f, -0.04778326f, -0.06063985f, -0.06903961f, -0.11731357f, 0.12429416f, -0.09725234f, -0.27430581f, -0.04682588f, 0.01489371f, -0.10712094f, -0.02879087f, -0.15404475f, -0.12074859f, 0.16684881f, -0.20577241f, -0.07674743f, -0.01792391f, 0.14319529f, 0.14364373f, -0.16708623f, -0.18242211f, 0.06842020f, 0.02545315f, 0.05768952f, -0.08219457f, -0.20966224f, 0.15735794f, 0.14886517f, 0.08454400f, -0.04107587f},
    {-0.21200020f, 0.03528593f, 0.10587104f, 0.10628311f, -0.05495242f, 0.06105901f, 0.01391253f, 0.04251224f, -0.06544691f, 0.01588345f, -0.02786588f, -0.08810783f, 0.03766549f, -0.06979027f, 0.00125841f, 0.03850984f, 0.04013745f, 0.02565111f, 0.03106574f, 0.06685346f, 0.07830118f, 0.03970621f, -0.18262420f, -0.15546665f, -0.01511890f, -0.00351664f, 0.13464523f, 0.16460100f, 0.14354816f, 0.03510528f, -0.18219518f, 0.15922270f, -0.04780873f, -0.08818159f, -0.09785325f, 0.03878288f, -0.03471052f, 0.08206165f, -0.00764346f, -0.07499113f, 0.01547762f, 0.01676467f, -0.06654840f, -0.18419961f, 0.28149961f, 0.21926733f, -0.04592034f, -0.04139311f, -0.06354938f, -0.03182666f, -0.06242131f, 0.00477505f, -0.11561732f, -0.10019691f, -0.00674852f, -0.16174016f, 0.02229193f, -0.02293426f, 0.01033499f, -0.11621421f, -0.00805704f, 0.22747154f, -0.06337072f, -0.16697198f, -0.13940437f, 0.02089534f, -0.04116246f, 0.04230467f, -0.06847116f, 0.06356027f, -0.00271859f, -0.07304540f, 0.08678983f, -0.11802474f, 0.03135001f, -0.01153805f, -0.03647054f, -0.06286253f, -0.09535163f, -0.00538057f, 0.19114244f, 0.21861160f, 0.02447625f, -0.33886088f, -0.05029930f, -0.04929942f, -0.00597339f, 0.01621645f, 0.29205430f, -0.03780067f, -0.22990480f, -0.16899999f, -0.08281259f, 0.13009617f, -0.08787211f, 0.03942109f, -0.02847981f, 0.03129356f, 0.09618440f, 0.03656283f, -0.10904986f, -0.20687238f, 0.01386962f, -0.27878562f, 0.02376983f, 0.09339283f, -0.10133672f, -0.11998870f, -0.04413810f, 0.09542893f, 0.06987617f, -0.00060495f, -0.14123400f, 0.12209285f, 0.15878101f, -0.03225173f, 0.01725352f, 0.01368424f, -0.34805042f, 0.08409401f, 0.12832826f, 0.01302628f, 0.19873074f, 0.02749425f, 0.03351347f, -0.02104786f, 0.07178157f, -0.20850086f, -0.01294390f, -0.03922528f, -0.00464690f, 0.09193158f, -0.03479313f, -0.09330619f, -0.15283471f, -0.00670593f, 0.02422993f, -0.18536535f, -0.01219304f, -0.07363336f, -0.03788028f, 0.02135262f, -0.14924597f, 0.00619293f, 0.06629939f, -0.01565976f, -0.03226013f, -0.08176731f, -0.02924115f, 0.05065544f, 0.12671271f, -0.02624076f, -0.18910598f, -0.08114119f, -0.04703629f, -0.17998180f, -0.09781516f, 0.10699874f, 0.05188413f, 0.11732076f, -0.03290147f, -0.04072500f, -0.27421644f, 0.03405518f, -0.04674463f, 0.04178099f, -0.00272950f, 0.13187520f, -0.13261961f, -0.02861031f, -0.06198657f, -0.01709442f, 0.21786167f, 0.00564989f, 0.04576016f, -0.10316156f, -0.30895189f, -0.06132343f, 0.03388090f, 0.05597348f, -0.14525310f, -0.00489983f, 0.10517762f, 0.17735038f, 0.06908514f, 0.14615044f, 0.06990719f, -0.03541824f, 0.05475924f, -0.07087765f, 0.06090646f, -0.29317975f, -0.02320392f, -0.04582162f, -0.14731971f, -0.07290193f, -0.14908284f, -0.05459790f, -0.11434832f, 0.34135958f, 0.11168012f, 0.10447291f, -0.12135169f, 0.11650172f, 0.11706466f, 0.02794451f, 0.30356813f, 0.04905860f, 0.04278975f, -0.13049382f, -0.06710514f, -0.32901922f, -0.05786381f, 0.02504841f, -0.04426317f, 0.02104747f, -0.15302575f, -0.05082557f, -0.10806634f, 0.03429830f, 0.01390882f, -0.07031761f, -0.02979801f, 0.10866503f, 0.19107320f, 0.12089470f, -0.05841276f, -0.06812357f, 0.02974821f, -0.04893399f, 0.00694324f, 0.11620787f, 0.03381166f, -0.01832708f, -0.05564163f, -0.07222597f, -0.07044317f, -0.03994513f, -0.05702363f, 0.01054612f, -0.04621256f, 0.06027074f, -0.09754149f, -0.01658004f, 0.15686048f, -0.04559157f, 0.03239737f, 0.07471153f, 0.09747430f, 0.14344524f, 0.11820179f, -0.00212362f, -0.00572517f, -0.05897906f, -0.08949269f, -0.00843457f},
    {-0.02813948f, 0.13571629f, 0.07737948f, -0.09673881f, -0.04625264f, 0.00970388f, -0.05612732f, -0.02815824f, 0.18349544f, -0.01509471f, 0.09230498f, -0.02666726f, 0.00419705f, 0.07158174f, -0.03345548f, -0.22308173f, -0.05563440f, 0.19409574f, -0.02996990f, -0.11635804f, -0.01881755f, 0.06581610f, 0.00754177f, 0.07281423f, 0.14629931f, 0.03036097f, 0.02065829f, 0.07226907f, 0.09001012f, -0.03005972f, -0.06610030f, 0.06340417f, 0.01648155f, 0.08252703f, 0.13291137f, -0.00425404f, -0.13073138f, 0.05695018f, 0.07438888f, 0.19906706f, -0.04181798f, 0.02112754f, 0.02757098f, -0.02772612f, -0.02597312f, 0.07053930f, 0.03947916f, 0.22867880f, 0.00531641f, 0.03763595f, 0.00237599f, -0.14563284f, -0.08237413f, -0.01997500f, -0.02152761f, 0.07492361f, -0.18562621f, -0.09160016f, -0.19590088f, 0.02962273f, -0.08761684f, 0.13414178f, 0.12780733f, -0.02082803f, 0.00397789f, 0.08979541f, -0.04468024f, -0.06394472f, -0.07489699f, 0.10968213f, -0.00321300f, 0.14888784f, 0.22381212f, -0.09655379f, 0.02979845f, 0.06796352f, -0.08934946f, 0.15254136f, -0.07124466f, 0.08319051f, -0.02672479f, 0.09550242f, 0.06858315f, 0.19997314f, 0.05993086f, -0.16415803f, 0.10014405f, 0.08318186f, 0.08736952f, 0.14981736f, -0.03755516f, -0.13906573f, 0.14339283f, 0.01788427f, -0.05774179f, -0.10262356f, 0.01742971f, 0.01633959f, -0.12908657f, -0.01349293f, 0.00845554f, 0.07570150f, -0.11202211f, -0.00252044f, 0.13958181f, -0.15500774f, 0.34852049f, -0.01118882f, -0.06807487f, -0.01756676f, -0.01000640f, -0.00646823f, 0.28194244f, 0.03977621f, -0.19568080f, 0.02980852f, 0.05763120f, -0.02153906f, -0.11173066f, 0.00899531f, 0.12378033f, 0.08183757f, 0.04757173f, -0.13119499f, -0.14016625f, -0.08393790f, 0.03752461f, -0.10307620f, 0.03252880f, 0.20768953f, 0.03514089f, -0.02676786f, 0.02973481f, -0.02037466f, 0.02274581f, -0.11335352f, -0.01505915f, 0.12017064f, -0.14995006f, -0.10699644f, 0.00073693f, 0.08650546f, 0.14768198f, 0.24229545f, -0.07925923f, 0.07263857f, 0.04672722f, -0.10886225f, -0.20353828f, 0.06153933f, -0.10793987f, 0.10876070f, -0.17776973f, -0.03120990f, 0.14833603f, 0.01964394f, 0.00087315f, 0.19294353f, -0.12657072f, -0.12249185f, 0.07997070f, 0.17802653f, 0.05014448f, 0.05002189f, -0.12946738f, -0.16976495f, -0.01731936f, 0.15795322f, -0.07270516f, -0.05092816f, -0.03887037f, -0.04633364f, -0.09445677f, 0.01405263f, -0.17710710f, 0.14751321f, -0.03697053f, 0.04939944f, -0.15704155f, 0.12112097f, 0.03556776f, 0.06392763f, -0.11783717f, -0.05971615f, 0.08213662f, -0.05617029f, 0.00217627f, 0.11869195f, -0.04774188f, -0.03587965f, 0.04821850f, 0.19553554f, -0.03812677f, -0.00388219f, -0.01277042f, -0.06825814f, 0.19220205f, -0.09694571f, 0.02451916f, -0.05746179f, 0.09674220f, -0.21972055f, 0.07330168f, 0.04166796f, 0.06520428f, 0.16929184f, 0.19572842f, 0.01406429f, 0.01396573f, 0.13692796f, 0.04875942f, -0.07397123f, -0.04704153f, -0.19152759f, 0.11301259f, -0.01950416f, -0.15153138f, -0.05450521f, -0.04412795f, 0.07079450f, 0.13206760f, -0.20164957f, -0.06647749f, 0.00524174f, -0.20038650f, 0.10832828f, 0.11034765f, 0.03699399f, 0.07098003f, 0.10229333f, -0.03656105f, -0.06648234f, -0.02950370f, -0.12648735f, -0.03161891f, -0.03818159f, 0.05671983f, 0.00351363f, -0.10427435f, -0.06243959f, 0.04147114f, 0.02436126f, 0.01651843f, 0.03544804f, -0.21228533f, -0.01000870f, -0.15467264f, 0.09051614f, -0.09154060f, -0.20024407f, 0.17094572f, -0.26955346f, 0.07859065f, 0.01516736f, -0.07462363f, -0.07352779f},
    {-0.04190443f, -0.06841798f, -0.06687027f, 0.03319180f, -0.06608609f, 0.00209282f, -0.03483970f, 0.07779853f, 0.05108427f, -0.10352289f, -0.03897473f, -0.00067796f, -0.16551101f, 0.07059416f, 0.05703417f, 0.03039497f, -0.00139471f, 0.02848363f, 0.04323335f, 0.03069083f, -0.16504000f, -0.06107821f, 0.10385460f, 0.01396830f, 0.07031926f, -0.11353838f, 0.04581178f, 0.02877492f, -0.00700102f, 0.08649852f, -0.03146057f, 0.05000391f, 0.14412516f, 0.09988903f, -0.07162402f, 0.00632230f, -0.07258329f, -0.08552602f, -0.00967126f, -0.13029247f, -0.00100016f, -0.15200353f, 0.05660013f, 0.11342262f, 0.02073420f, -0.01413257f, 0.09113503f, 0.15119517f, -0.15896348f, 0.10047793f, -0.09821149f, -0.16377769f, -0.03061475f, 0.09186343f, -0.12150973f, 0.07305710f, -0.08368918f, 0.12083182f, -0.26496909f, -0.12538601f, 0.02277966f, -0.04660735f, -0.15904213f, 0.05659530f, -0.09457575f, -0.08923224f, -0.03593016f, 0.10390588f, -0.12011077f, -0.00156524f, -0.05485125f, 0.01677267f, 0.00676789f, -0.06381875f, 0.02108897f, 0.17510481f, -0.01217770f, 0.22871461f, 0.02128850f, -0.15891032f, 0.03382275f, -0.09965351f, -0.01629882f, 0.22967244f, -0.03579454f, -0.10307198f, 0.16232975f, -0.01719460f, 0.09720024f, -0.02818534f, 0.06882373f, -0.17024794f, 0.05016247f, -0.04585392f, -0.03926476f, 0.11072056f, 0.11186234f, -0.06175005f, -0.02313991f, -0.17510284f, -0.05769800f, -0.11204419f, -0.05025974f, 0.02737373f, 0.14438078f, -0.00069237f, -0.08548051f, 0.01968392f, 0.04711402f, 0.06560021f, -0.03236501f, 0.06540411f, -0.11722849f, -0.04866878f, 0.10222161f, 0.05400412f, 0.08480839f, -0.03168587f, 0.01963444f, -0.03453486f, 0.14658470f, -0.13435412f, 0.06302377f, -0.04902085f, 0.11666591f, 0.17799133f, -0.09577799f, 0.05179515f, -0.00805335f, -0.09739410f, 0.06093844f, 0.08640429f, -0.11082608f, -0.14224566f, 0.08508631f, -0.07352063f, 0.01841157f, 0.10861983f, 0.04985635f, -0.09339185f, 0.05080136f, 0.02138935f, 0.09841168f, 0.06733114f, -0.00121320f, -0.02137277f, -0.09221298f, 0.24446785f, 0.11832519f, -0.02258586f, 0.03469106f, 0.17990226f, -0.14313010f, 0.09160197f, -0.15895321f, 0.01289520f, 0.24437027f, 0.16933651f, 0.02376664f, -0.20379025f, -0.00888850f, 0.18046298f, -0.06615650f, -0.19641244f, -0.16676820f, -0.02528357f, -0.08160389f, 0.23339435f, -0.05614423f, 0.07845769f, 0.13971933f, 0.15912002f, -0.13805920f, -0.14023726f, 0.00206853f, -0.06496208f, 0.00660889f, 0.14715364f, -0.01472359f, 0.00761710f, -0.01120280f, 0.08604208f, 0.06609508f, 0.03059216f, -0.03210764f, 0.07724177f, 0.00662624f, 0.05323083f, -0.09221327f, 0.11714787f, 0.00576984f, -0.04942698f, -0.31091002f, 0.15083795f, -0.14038945f, -0.10528568f, -0.03460644f, -0.14325624f, 0.00189257f, -0.07513408f, 0.18287898f, -0.04919119f, 0.08087779f, -0.08167586f, 0.22036977f, -0.09824550f, 0.11721714f, -0.06745880f, 0.14096889f, 0.09651212f, 0.14635273f, 0.01231406f, 0.00921103f, -0.01737656f, -0.18559651f, 0.02951675f, -0.17367839f, -0.07743344f, -0.11638232f, -0.12281945f, -0.20739239f, -0.07341873f, 0.13909446f, 0.11390825f, 0.00831548f, 0.16400266f, 0.13806085f, -0.09859286f, -0.06311153f, -0.07712762f, -0.15714176f, -0.09907352f, 0.02546129f, -0.05703076f, 0.03810187f, 0.05737624f, -0.01037732f, 0.04151299f, 0.02844680f, 0.04563579f, -0.06294323f, 0.04787392f, 0.08052987f, 0.15363673f, -0.02523797f, 0.04361375f, 0.10740170f, 0.20869747f, -0.07363556f, 0.09444273f, 0.13671484f, 0.00870921f, 0.07832774f, 0.12950900f, -0.16172015f, 0.03682449f},
    {0.10388472f, 0.31042351f, -0.19792295f, 0.07515978f, -0.07513768f, -0.03043229f, -0.04823540f, 0.00588561f, 0.10971995f, -0.07470730f, -0.05566812f, -0.08720519f, 0.11719442f, -0.25534009f, 0.22390309f, -0.08090688f, 0.07324334f, 0.10956638f, -0.15278090f, -0.07100001f, 0.02239004f, -0.16011732f, -0.08199719f, 0.07252218f, -0.00308602f, 0.09011558f, -0.09196787f, 0.03099466f, 0.08146799f, -0.05436696f, 0.03876357f, -0.09891129f, -0.05588066f, 0.00105329f, 0.03495610f, -0.14247048f, 0.06714591f, 0.20438333f, 0.16183435f, 0.16578527f, 0.11577480f, 0.10578916f, 0.15553864f, -0.00287321f, 0.04616676f, -0.02707024f, -0.06858222f, 0.04085213f, 0.10656288f, -0.00581339f, 0.10466237f, 0.10980678f, -0.05417554f, -0.02949875f, 0.08909637f, -0.06968519f, 0.25156322f, -0.13436564f, 0.17970629f, -0.06866822f, -0.10993927f, 0.04600182f, 0.05222295f, -0.17137083f, -0.01107752f, -0.12905365f, -0.07542350f, 0.24127737f, -0.00429975f, 0.18041037f, 0.08654645f, 0.11041943f, 0.16087929f, -0.18022633f, -0.01609817f, 0.16979118f, -0.03050980f, -0.03205138f, -0.12664728f, -0.09877764f, -0.02272431f, -0.14944629f, -0.02681227f, 0.05795041f, -0.11054666f, -0.01336588f, 0.13679083f, -0.01515534f, 0.10049982f, -0.04227866f, 0.02290702f, -0.07007584f, 0.17545234f, 0.03767501f, -0.02185343f, 0.02104323f, 0.05399919f, 0.05970291f, 0.08053021f, -0.01926632f, -0.02613876f, 0.04363471f, 0.06969174f, -0.04117748f, 0.02975369f, -0.02224083f, -0.09951480f, 0.10233043f, 0.15953184f, -0.01398173f, 0.00768300f, -0.12901744f, -0.04413399f, 0.13615553f, -0.08256420f, -0.05037247f, -0.08920195f, -0.00480731f, -0.01377111f, -0.06538182f, -0.02440726f, -0.00187150f, -0.01456522f, -0.02076477f, -0.00754524f, -0.08870347f, -0.02540436f, -0.19158981f, 0.01260692f, 0.10150186f, -0.20437237f, -0.05248076f, -0.04409373f, -0.08741699f, -0.01440873f, 0.04065834f, -0.23770299f, -0.16184149f, 0.02491713f, 0.06579785f, -0.02222394f, -0.19504021f, 0.02489583f, 0.01868904f, -0.13385985f, 0.01303321f, 0.07689097f, 0.12127452f, -0.03461837f, 0.02680804f, 0.16470064f, 0.00658017f, 0.05067808f, -0.03873836f, -0.07151156f, -0.00738310f, 0.08356766f, 0.12472656f, -0.16350475f, -0.16319545f, 0.26848756f, -0.04930638f, 0.02142615f, -0.07461807f, 0.05411475f, 0.01291493f, 0.02260950f, 0.05083317f, -0.03876449f, 0.01553676f, 0.00316825f, -0.13269254f, 0.14536820f, -0.20301601f, 0.01017390f, -0.20142583f, 0.00423849f, -0.08515767f, 0.02834251f, 0.11189981f, 0.06457755f, -0.09021283f, 0.29560410f, -0.03137031f, -0.11789344f, 0.09758639f, 0.06466110f, 0.07438589f, 0.16654469f, 0.12423590f, -0.08781128f, -0.24745086f, 0.07909488f, -0.05029324f, 0.05813175f, -0.02723066f, -0.05419084f, -0.08450281f, 0.03063796f, 0.05250797f, -0.06114938f, -0.17616891f, 0.29086247f, -0.11948475f, 0.01080142f, 0.04780503f, 0.00002421f, -0.11941518f, -0.07130034f, -0.19172975f, 0.03771160f, -0.02194193f, -0.05987400f, 0.09054098f, -0.08546614f, 0.10887859f, -0.23615939f, 0.00335964f, -0.18445710f, -0.05950165f, 0.16910893f, 0.12851560f, 0.11083456f, 0.10448664f, 0.08177127f, 0.16273180f, 0.00180287f, -0.00498009f, -0.13142580f, 0.13371039f, -0.01906149f, -0.02652277f, 0.00544372f, -0.00285563f, 0.04517427f, -0.06581600f, 0.02530709f, 0.08252757f, -0.07998955f, 0.06039030f, 0.12047566f, -0.06305625f, -0.21004005f, 0.03002317f, -0.16455219f, 0.20456182f, 0.04588919f, -0.06969046f, 0.00295088f, 0.04996252f, 0.00628256f, -0.22909228f, 0.06577299f, 0.00978029f, -0.01125389f, -0.07314759f},
    {-0.10878700f, 0.08058436f, -0.08564492f, 0.06908926f, -0.06850059f, 0.01378448f, -0.12108570f, 0.05113325f, -0.00309795f, 0.05202134f, -0.16838212f, 0.25567055f, -0.04347368f, 0.14455390f, -0.00825614f, 0.05687627f, 0.04464178f, -0.03355052f, -0.12933438f, 0.16817478f, -0.07605402f, 0.05595058f, 0.04598071f, -0.12185149f, 0.08902724f, 0.15826286f, 0.06961176f, -0.01808116f, 0.02500700f, -0.11664686f, 0.17107438f, 0.16222508f, -0.06860977f, 0.15237353f, 0.20312442f, -0.08412190f, -0.06924302f, 0.01868161f, 0.00475126f, 0.15254591f, -0.07942684f, 0.02596640f, 0.07069843f, 0.03309283f, 0.08492707f, -0.00301527f, -0.11469583f, 0.03812791f, 0.15897970f, -0.05449533f, 0.05817358f, 0.14330208f, -0.16479666f, -0.11935489f, 0.00617989f, -0.11071376f, 0.11755337f, -0.00600709f, -0.04944071f, -0.08345524f, -0.08264876f, -0.02053269f, 0.22116236f, 0.02157307f, -0.03259143f, -0.08556462f, 0.24358491f, -0.00667781f, 0.09909034f, -0.23901608f, 0.03060317f, -0.01441858f, 0.08583884f, 0.01255621f, -0.01872083f, 0.07680022f, -0.00279271f, 0.02017704f, 0.16550538f, -0.13035223f, -0.11054019f, -0.16815555f, 0.01072394f, 0.13797931f, 0.01547035f, 0.03318430f, 0.02227307f, -0.18902186f, -0.19160455f, 0.10761017f, -0.06162745f, 0.08337082f, 0.13519266f, -0.04300403f, -0.22689865f, -0.09147682f, -0.12339639f, 0.15917258f, -0.01165423f, 0.03228464f, -0.12901264f, 0.10143171f, 0.11180038f, 0.07390885f, -0.01319281f, 0.16710023f, 0.04715832f, -0.26578114f, -0.11705084f, -0.02466656f, 0.13688350f, -0.07323306f, 0.05042827f, 0.08708180f, 0.03285266f, 0.17033718f, 0.06772886f, 0.00089615f, 0.08186285f, 0.15753600f, 0.01836251f, 0.07567403f, 0.03878123f, 0.11675844f, -0.02594550f, 0.03032522f, -0.07651931f, 0.04192785f, -0.08643114f, 0.26953387f, -0.00259624f, 0.03047155f, 0.01345266f, 0.05035939f, 0.00764201f, -0.09812499f, -0.04319709f, 0.10287930f, 0.06003437f, -0.02027744f, -0.17566991f, 0.13034611f, -0.06271740f, 0.05623146f, 0.00323040f, -0.07215600f, -0.05965710f, -0.05450109f, -0.06841348f, 0.04276730f, 0.00549383f, 0.08030737f, 0.04038456f, -0.08845047f, -0.10004812f, -0.07497823f, -0.09859539f, -0.00389337f, 0.14811539f, 0.14807478f, 0.06181756f, 0.12693726f, 0.10777623f, -0.00313673f, -0.00927845f, 0.02543221f, 0.00449565f, 0.02883422f, 0.01276729f, -0.21742407f, 0.02824757f, 0.13360855f, 0.04764961f, 0.11129475f, 0.04609078f, -0.07439824f, 0.19605586f, -0.24831849f, -0.14318616f, -0.02489672f, -0.02613570f, -0.00394302f, -0.03680754f, 0.05077290f, -0.03492960f, -0.15608970f, -0.07958142f, 0.00510389f, 0.09246801f, 0.22304676f, 0.06450738f, -0.11964703f, -0.11601043f, -0.04974116f, 0.08769761f, -0.17126626f, -0.00795932f, -0.07448694f, 0.03943969f, -0.15195189f, -0.00193077f, 0.00486758f, -0.19803896f, -0.15678686f, -0.01529367f, 0.00778390f, 0.14684662f, -0.16945130f, 0.17745093f, -0.07491618f, -0.05180744f, 0.14206526f, -0.10364065f, 0.12631740f, -0.06399599f, 0.04579976f, 0.07840738f, -0.07885979f, -0.09793738f, 0.08105657f, -0.04628817f, 0.03321866f, 0.06424313f, 0.16923167f, -0.13869963f, -0.01765422f, -0.08581143f, 0.02003224f, -0.18622560f, 0.08088401f, -0.04926685f, 0.05370110f, 0.03586553f, 0.13448429f, 0.02713946f, -0.08745994f, 0.22004358f, -0.08875995f, 0.15733462f, -0.00320954f, -0.04486336f, 0.05503418f, -0.06502910f, 0.01676708f, -0.15667480f, -0.12533223f, 0.07436547f, 0.05617576f, 0.15297829f, -0.18508424f, -0.03727509f, 0.11033549f, -0.02164226f, 0.02223266f, 0.11350968f, 0.06064429f},
    {-0.01311814f, 0.06543946f, 0.12981399f, -0.01442570f, 0.02393786f, -0.20478858f, -0.04390758f, 0.00257384f, 0.00819032f, 0.00336052f, 0.04925732f, 0.01994056f, 0.06441254f, 0.06791551f, 0.22609878f, 0.04665049f, -0.27231192f, -0.06395876f, 0.09267946f, -0.18494027f, -0.00236517f, 0.19600910f, 0.09801353f, -0.03902214f, -0.05757841f, 0.12056857f, -0.01168361f, 0.01577798f, -0.05498509f, -0.13404767f, -0.04577555f, 0.17371974f, 0.12122724f, 0.09327871f, -0.11604562f, -0.06250937f, 0.02438748f, 0.16091071f, -0.04570556f, 0.07209920f, 0.03706388f, 0.01776885f, 0.02135943f, -0.04350423f, 0.05878375f, 0.03069377f, 0.05392520f, -0.13148897f, -0.02899491f, 0.19947401f, -0.02986512f, -0.33549836f, -0.01265209f, -0.07028069f, 0.16987496f, -0.01958169f, 0.12455185f, 0.08514676f, -0.14168086f, -0.07312293f, -0.12246029f, -0.02221915f, 0.04133592f, 0.13915082f, -0.11158362f, 0.04095261f, -0.14763632f, -0.15492121f, -0.09265269f, -0.06373493f, 0.21472430f, 0.09072792f, 0.06014388f, 0.13187556f, 0.06252010f, -0.00666956f, 0.16341443f, 0.17531064f, 0.07282426f, 0.03227652f, -0.13294208f, -0.20942406f, -0.05821513f, -0.02692639f, -0.01181298f, 0.02133972f, -0.03190830f, 0.01192241f, 0.00302207f, -0.07047384f, -0.10297435f, -0.03637359f, -0.14866480f, 0.01596147f, 0.12856421f, -0.03829732f, 0.03681624f, -0.01776455f, -0.14271126f, -0.11228987f, -0.04545492f, -0.05390467f, 0.07653322f, -0.03708633f, 0.04529550f, 0.01968777f, -0.01017925f, -0.13999623f, -0.35962077f, 0.09240880f, -0.15174375f, 0.11169430f, 0.04315427f, 0.01922541f, 0.04839704f, 0.05293542f, 0.11443524f, -0.04145378f, -0.02725201f, -0.13649964f, -0.13518199f, 0.07690408f, -0.10905962f, 0.06337830f, 0.00987635f, -0.05376914f, -0.08461060f, -0.00313518f, -0.02981216f, 0.04148040f, 0.04133279f, -0.06895948f, 0.06603054f, 0.01777642f, 0.02367338f, 0.06641268f, -0.08528979f, 0.14219258f, 0.17748559f, -0.01333544f, -0.09320266f, -0.10520428f, 0.03725715f, -0.06831752f, -0.04163789f, -0.02503512f, 0.23196933f, 0.06103792f, -0.13917419f, -0.06943887f, 0.00392561f, -0.03127964f, 0.12730340f, -0.02586626f, -0.14702277f, 0.01943845f, 0.10009354f, 0.01191151f, -0.00276778f, 0.02556186f, 0.05769548f, 0.08473831f, -0.04115120f, -0.12455215f, -0.00390363f, -0.03635512f, -0.11474794f, 0.07670609f, 0.01351546f, 0.03572434f, -0.06087918f, -0.07490410f, -0.13667561f, -0.07987047f, -0.10111288f, 0.01184787f, -0.25368933f, 0.03612287f, -0.10694299f, 0.00784537f, -0.11121810f, -0.07116842f, 0.09138718f, -0.27294342f, 0.13700271f, 0.04789484f, 0.04798095f, -0.04103774f, 0.17453610f, -0.11235326f, -0.02164513f, -0.09762884f, 0.06670294f, 0.03205757f, 0.01427958f, 0.03933195f, 0.12234018f, 0.04576064f, 0.03068278f, 0.03833704f, 0.11277733f, 0.07108122f, -0.03965826f, 0.06681523f, -0.04630610f, 0.00007790f, -0.14078501f, 0.04895766f, -0.08978145f, 0.12859696f, -0.13966608f, 0.00664183f, -0.11046294f, -0.07905718f, 0.04440650f, 0.12095957f, 0.09337574f, -0.00420091f, -0.03558154f, 0.01731166f, 0.07028569f, 0.00714960f, -0.00792207f, -0.16046248f, 0.13288939f, 0.00061722f, -0.14676306f, 0.12667748f, 0.07021282f, 0.17010418f, -0.16580929f, -0.04566829f, -0.14502028f, 0.06285397f, 0.06798161f, -0.21205751f, 0.02992905f, -0.05039195f, 0.11352865f, -0.07563807f, 0.05922327f, -0.04297638f, 0.02625090f, 0.11126861f, -0.00683180f, -0.05167613f, -0.01252711f, -0.03086696f, 0.12984741f, 0.17313588f, -0.07631930f, 0.02569248f, -0.10437978f, -0.17221991f, 0.04694862f, 0.02784284f},
    {-0.09426505f, -0.00158497f, -0.10119004f, 0.02816747f, -0.04696270f, -0.03942850f, 0.07235282f, 0.15297207f, 0.03466831f, -0.25626895f, 0.03267095f, 0.10144571f, -0.01559173f, -0.06143586f, -0.05983845f, -0.26189069f, 0.17551559f, 0.02414927f, -0.04599394f, -0.02991403f, 0.22821982f, -0.02237475f, -0.01091020f, 0.02367223f, -0.02135917f, 0.07066576f, 0.13566965f, -0.17146979f, 0.18279899f, -0.13665805f, -0.11554370f, -0.15292875f, -0.06416594f, 0.11961196f, -0.03491313f, 0.06219234f, 0.00322641f, -0.10206720f, -0.01470553f, -0.10859285f, 0.05042406f, -0.06512255f, -0.00661445f, 0.07528045f, 0.10250941f, 0.13937347f, -0.04837673f, -0.07297598f, 0.13056210f, 0.04332028f, 0.01698823f, 0.18227561f, 0.00720899f, -0.08596961f, -0.05435470f, 0.13152498f, -0.15384174f, -0.06231179f, 0.16606432f, 0.00602586f, -0.00285210f, -0.02602542f, 0.15201036f, -0.05530545f, 0.07377594f, 0.06072292f, 0.25008772f, 0.07439442f, -0.04442443f, 0.03061929f, 0.07150126f, 0.17623449f, 0.14967380f, -0.01809576f, 0.10107999f, 0.08260425f, 0.07710741f, 0.01851898f, -0.07837965f, 0.05430516f, -0.05075252f, 0.00825596f, 0.03620458f, 0.18850237f, 0.09927285f, 0.01202365f, 0.02924148f, 0.09049892f, 0.01754716f, -0.31321566f, 0.05573682f, 0.03394282f, 0.15726756f, -0.04470904f, -0.21394408f, -0.17019964f, 0.01925752f, 0.08091938f, 0.00018724f, 0.05681984f, -0.23274040f, -0.05470151f, 0.06874862f, 0.06454156f, -0.01910739f, -0.05000826f, -0.07009057f, -0.13895151f, 0.07235886f, 0.15466342f, -0.14041340f, 0.01635536f, -0.09271445f, -0.01618231f, 0.00490748f, 0.01805365f, -0.16272590f, -0.17498273f, -0.12120450f, 0.23372327f, -0.01075095f, -0.01659633f, -0.00867795f, 0.28281758f, 0.07021152f, -0.04795638f, -0.15010567f, 0.23439859f, -0.14927609f, -0.02829736f, 0.14461431f, -0.04744825f, -0.09738412f, 0.06823751f, 0.13072441f, 0.01144209f, -0.01472700f, -0.01251081f, 0.16004845f, 0.12698036f, 0.11228963f, 0.01296388f, 0.04362842f, -0.05760761f, -0.07337041f, -0.06784185f, -0.09469664f, -0.02855284f, 0.13159358f, -0.13492585f, -0.12271698f, -0.14275760f, 0.04815112f, -0.03668246f, 0.02800872f, -0.17790909f, -0.02604091f, -0.03137061f, 0.03883427f, -0.05685908f, -0.07073902f, 0.10464881f, -0.23501071f, 0.00983447f, 0.08129562f, -0.10978615f, 0.12651168f, 0.16506009f, -0.09204209f, 0.08554884f, 0.14261480f, -0.08990605f, -0.15648647f, -0.04017849f, -0.04799055f, 0.04406280f, -0.01108937f, -0.03888670f, -0.16699413f, -0.01560874f, -0.01309913f, 0.08787397f, 0.13710955f, -0.07558656f, -0.10948352f, -0.07738472f, -0.11718976f, 0.01677746f, 0.13468315f, 0.12532653f, -0.13396200f, -0.15988163f, 0.04538989f, -0.02526279f, -0.04618895f, 0.11080040f, 0.06487194f, 0.06129820f, -0.01789268f, -0.01052544f, 0.15112133f, 0.11366319f, 0.24884522f, -0.12005494f, 0.17279187f, -0.11587926f, -0.11180690f, -0.14053656f, 0.03459401f, -0.00859569f, 0.14729566f, 0.03763507f, 0.01991579f, -0.00841007f, -0.00553233f, -0.00067459f, 0.22791951f, -0.02437620f, 0.02121330f, -0.05406579f, 0.05222903f, -0.00401368f, -0.03975819f, 0.02918515f, -0.19208480f, 0.06544163f, 0.07201626f, 0.04030172f, -0.06995510f, 0.21861865f, 0.09071424f, 0.18554065f, -0.10593177f, -0.00330763f, 0.10751994f, 0.08435090f, 0.07083231f, 0.02496994f, -0.11613002f, -0.02336107f, -0.15520858f, -0.00945672f, -0.02199937f, 0.01472358f, -0.07228066f, 0.16913060f, -0.14617428f, 0.06468281f, 0.18111432f, -0.01740621f, -0.02887283f, 0.01930365f, -0.04169882f, -0.10235013f, 0.02534646f, -0.06122284f},
    {0.00879690f, -0.07738968f, 0.08204616f, -0.03158583f, 0.08403413f, -0.19140476f, 0.14134966f, -0.20446507f, 0.00293130f, 0.05709291f, 0.09207119f, 0.16940495f, -0.00614540f, 0.00395949f, -0.03634624f, 0.04856413f, -0.02190248f, -0.00524540f, 0.12745892f, -0.00752945f, -0.10204491f, 0.09661607f, 0.05341421f, -0.25064100f, -0.12168184f, 0.03363131f, -0.09503049f, 0.19503089f, -0.09094129f, -0.06262277f, -0.06051898f, 0.10906186f, 0.02413199f, -0.16891054f, 0.13439429f, 0.09556452f, 0.10687520f, 0.07409671f, 0.07715579f, -0.09182000f, -0.08641638f, 0.06058530f, -0.05576391f, 0.02950581f, -0.01510211f, -0.22127969f, 0.14575499f, 0.18891912f, 0.09631586f, -0.01555058f, -0.12228918f, -0.01209864f, 0.12090422f, 0.04943684f, 0.05933400f, 0.02115771f, -0.13563386f, 0.17464991f, -0.01830670f, -0.04310110f, 0.00154924f, -0.04979759f, -0.00211359f, -0.13693118f, 0.08473023f, 0.05873096f, -0.01743782f, -0.17579316f, -0.16449797f, -0.10049542f, -0.07312225f, -0.11559518f, -0.03445485f, -0.00813039f, 0.09148125f, 0.21371600f, 0.00428243f, -0.04518991f, 0.09287821f, -0.03526982f, -0.09376548f, -0.09091574f, 0.06716476f, 0.14873557f, -0.04655167f, 0.06308250f, -0.02022320f, -0.02389671f, -0.11577564f, -0.15204465f, 0.03483274f, 0.07649881f, -0.15965705f, -0.13127372f, 0.05429848f, -0.06080126f, -0.03371575f, -0.14138106f, -0.09170256f, -0.23474740f, 0.01828471f, 0.00179619f, -0.14813410f, 0.09006117f, 0.00771907f, 0.02256200f, -0.06121927f, -0.04954344f, -0.05033637f, 0.00180361f, 0.04666808f, -0.07865001f, 0.10689407f, 0.05726197f, -0.09220115f, -0.18089162f, 0.06220298f, -0.04314208f, -0.02831140f, -0.08520229f, 0.13610777f, 0.10938721f, -0.03237056f, -0.02470734f, -0.02033104f, 0.08567738f, -0.13538823f, 0.08234080f, 0.14563746f, -0.03448942f, -0.08815605f, -0.08779434f, -0.03900048f, 0.05974342f, -0.00188457f, 0.08603864f, -0.07587886f, -0.13476164f, -0.15003634f, 0.00287777f, 0.04393738f, -0.06929623f, 0.02287086f, -0.01000320f, -0.02283503f, -0.07251387f, -0.03065948f, -0.03825390f, -0.07268887f, -0.16086166f, -0.22829796f, -0.15846322f, -0.02785077f, -0.00884764f, -0.03644133f, 0.01606496f, -0.13638683f, 0.06441742f, 0.08028838f, -0.02718985f, 0.10258428f, -0.14825158f, -0.11650186f, -0.09406876f, -0.10693443f, 0.02528189f, 0.00227041f, 0.16443897f, -0.26021705f, 0.12853969f, -0.05801597f, 0.01125584f, 0.06467635f, -0.08355514f, 0.00784089f, 0.02307309f, 0.04066655f, -0.18123480f, 0.10041220f, 0.11835615f, 0.08100216f, 0.07423345f, -0.00676248f, -0.13617903f, 0.01806765f, 0.17858561f, 0.12639088f, 0.04188052f, 0.11510795f, 0.08528774f, 0.04509518f, -0.14721793f, -0.05168370f, 0.04120547f, -0.03702712f, 0.15632956f, -0.07596912f, 0.06084878f, -0.10008498f, 0.02548175f, 0.25732332f, 0.03853212f, -0.17118398f, 0.02364950f, -0.06251244f, -0.08011088f, -0.14642848f, -0.08458932f, -0.10000397f, 0.07464801f, 0.06556141f, -0.02530079f, 0.04467676f, 0.14486624f, 0.11379556f, 0.11305663f, 0.04435370f, -0.09606981f, -0.07933720f, -0.05416177f, 0.01206233f, 0.13891427f, -0.10967805f, -0.02822761f, 0.13898655f, -0.05048164f, 0.17004771f, -0.01038454f, -0.00460717f, 0.00986941f, -0.09692052f, -0.07296540f, -0.11380830f, 0.00367642f, 0.04930306f, 0.03281962f, 0.06200652f, 0.01142417f, -0.08712213f, 0.06257424f, -0.13135299f, 0.05785769f, 0.00835192f, -0.13567221f, 0.01421632f, 0.11419247f, 0.10365576f, -0.13553598f, -0.00169687f, -0.04288820f, 0.00133901f, -0.04515608f, -0.03420399f, -0.01127397f, -0.07662022f, 0.20933325f},
    {0.05474498f, -0.08886606f, -0.06212946f, -0.11867443f, 0.00551213f, 0.02539456f, 0.14314539f, 0.03318364f, 0.16333450f, -0.02537297f, 0.07868402f, 0.20209049f, -0.13993774f, 0.05157954f, 0.13182492f, 0.07146098f, -0.04812725f, -0.02150837f, -0.13413582f, 0.11019637f, -0.00574554f, 0.06172983f, -0.14124813f, 0.07680732f, -0.03321902f, -0.06799005f, -0.00001136f, 0.06550280f, 0.03815774f, 0.21518184f, 0.03441021f, 0.00191556f, -0.03209499f, -0.04315658f, -0.01978272f, 0.02601321f, -0.07490650f, 0.10996931f, -0.00895093f, -0.09742016f, 0.11038981f, 0.03815640f, 0.00536335f, -0.12155712f, -0.16756122f, -0.00776241f, -0.16703118f, 0.06061044f, 0.02152894f, 0.00382504f, 0.01412094f, 0.00307966f, 0.10718170f, -0.13915851f, 0.19130496f, -0.05397011f, 0.04339875f, -0.08572884f, -0.03551080f, 0.00523856f, 0.07077918f, -0.10414991f, -0.13349409f, -0.18223996f, 0.09272816f, -0.05434237f, 0.08315438f, 0.08043593f, -0.21106539f, 0.06178819f, -0.04744365f, -0.02493054f, 0.08927245f, 0.03335218f, 0.06520354f, 0.04086602f, -0.11243208f, -0.01294050f, -0.03683543f, 0.00944913f, -0.10889966f, -0.02129298f, -0.28886194f, -0.08418730f, 0.12522361f, -0.16434293f, -0.09882185f, -0.17411705f, 0.02422826f, -0.09459137f, 0.05937673f, 0.00147610f, 0.12560198f, 0.10792218f, 0.03308027f, 0.06539100f, -0.05501765f, -0.08337987f, -0.24157164f, 0.03174702f, -0.13367623f, -0.12219776f, 0.23500319f, 0.09557792f, -0.02848506f, 0.11697023f, -0.00600452f, 0.32479354f, -0.09136366f, -0.07983707f, 0.17344478f, -0.01794072f, 0.15735655f, 0.17493005f, -0.06261279f, 0.11443390f, -0.09462188f, 0.05518659f, -0.17165219f, -0.13601745f, 0.04649632f, -0.11851669f, 0.04608822f, -0.12124289f, 0.00841527f, 0.02549498f, -0.13431818f, 0.08311215f, 0.13079777f, -0.04780869f, -0.19983777f, 0.00676203f, 0.10330618f, 0.03816713f, -0.04528221f, 0.19965535f, 0.09317092f, -0.05455034f, -0.00893310f, 0.04943128f, -0.04261157f, -0.04440324f, -0.11583235f, 0.04175183f, 0.05037106f, 0.00535555f, 0.13928817f, -0.04185564f, -0.00182877f, -0.05181155f, -0.05959153f, 0.06489180f, -0.12652205f, 0.09073947f, -0.09219819f, 0.05140304f, -0.04643444f, -0.07727152f, 0.00936930f, 0.24749786f, -0.06044445f, -0.02705926f, -0.10415557f, -0.14599386f, -0.03257630f, -0.06789423f, 0.05382271f, -0.06214212f, -0.04491897f, 0.05362503f, 0.14148988f, 0.04808349f, 0.07916600f, 0.12704306f, 0.07784194f, -0.14351901f, -0.06365240f, -0.00031199f, -0.01837542f, 0.08301052f, 0.02684967f, -0.10881352f, 0.03780933f, -0.16905545f, 0.04644092f, -0.06082065f, -0.05720932f, -0.16012174f, -0.14629663f, -0.11145982f, 0.04958869f, 0.04416942f, -0.08466126f, 0.12367443f, -0.12813797f, 0.03754890f, -0.06962148f, 0.07537145f, 0.09079091f, -0.01746147f, 0.00806722f, 0.05419432f, -0.08525072f, -0.08087233f, -0.01029183f, 0.16472750f, -0.06006478f, -0.13160693f, -0.13303669f, 0.06615309f, -0.04048645f, 0.05754713f, -0.04134688f, 0.12303759f, 0.10240972f, -0.00908933f, 0.10683245f, 0.05314226f, -0.04248905f, 0.07063220f, 0.11465456f, -0.18947702f, -0.10051583f, -0.03033781f, 0.06922337f, -0.06642669f, -0.02721982f, 0.16470049f, -0.00919618f, -0.05331676f, -0.15288670f, -0.15478270f, 0.16383031f, 0.08807364f, -0.08598219f, 0.01442672f, 0.16570040f, 0.13783027f, -0.08198794f, -0.05472567f, -0.13059823f, -0.07362112f, 0.04879503f, 0.08299945f, 0.01347404f, 0.00130828f, -0.00001451f, 0.09837446f, -0.09273111f, -0.15409771f, 0.00939296f, 0.00969517f, -0.04610120f, 0.09778127f, -0.02797270f, 0.03649357f},
    {-0.11627232f, -0.00829833f, 0.03379290f, 0.10014646f, -0.02576850f, 0.04640149f, -0.06045787f, -0.03952651f, -0.11253061f, 0.09907210f, -0.02409558f, -0.18716246f, -0.08688674f, -0.02765431f, 0.01159285f, 0.03542462f, 0.06536088f, -0.04195181f, 0.15845876f, 0.05125330f, -0.12114259f, 0.14687104f, -0.05648644f, -0.08293849f, -0.16408787f, -0.03875902f, 0.12141566f, 0.06400513f, 0.05934885f, 0.15841433f, 0.16151806f, -0.12999545f, 0.14033318f, 0.10815864f, 0.08563323f, 0.06746557f, 0.05720272f, 0.14442017f, 0.00353735f, -0.06996261f, -0.08082974f, 0.22011039f, 0.01798040f, 0.06732443f, -0.04035594f, -0.17159134f, -0.01810244f, 0.11693366f, 0.03931710f, 0.08300633f, 0.07965678f, 0.07178331f, 0.05966698f, -0.06303360f, 0.02498958f, -0.07310641f, -0.02440639f, -0.10549891f, 0.09214715f, -0.06875296f, -0.10454114f, -0.08584229f, 0.08432034f, 0.08179521f, -0.17269903f, 0.02788163f, 0.12064105f, 0.00618155f, 0.03486103f, 0.00645206f, 0.21789050f, -0.05774103f, 0.20520764f, 0.14570143f, -0.13198095f, -0.05245763f, 0.08664658f, 0.03501609f, 0.09600490f, -0.08986352f, 0.16065903f, 0.06957171f, -0.03534513f, 0.06547240f, -0.13432867f, 0.17085523f, -0.05790853f, -0.06888012f, -0.09308050f, -0.11717655f, 0.06538594f, -0.06869590f, 0.00606877f, -0.04503532f, -0.06683049f, 0.07363017f, 0.16502745f, -0.00526501f, -0.11538759f, -0.02018505f, -0.08376282f, -0.08914821f, -0.14207124f, 0.02386625f, -0.08638684f, 0.05530650f, 0.14442440f, 0.22368613f, -0.29271951f, -0.07632160f, -0.11526307f, -0.23007130f, 0.10811994f, -0.02283728f, 0.09434397f, 0.14591741f, 0.06474459f, 0.06735982f, -0.06112633f, -0.11186368f, -0.12445789f, -0.00230807f, 0.23235749f, -0.18095735f, 0.05247989f, -0.12035506f, 0.10794502f, 0.05444928f, -0.15439773f, -0.05954067f, 0.02491812f, -0.08151882f, -0.12584436f, -0.01910094f, -0.00712100f, 0.07643745f, 0.01907135f, 0.05695461f, -0.00962580f, 0.04240104f, 0.08137536f, -0.01006332f, 0.02235330f, -0.06232702f, 0.06407431f, -0.06216739f, 0.02318814f, -0.00352463f, 0.08675845f, -0.06895952f, 0.17017014f, 0.15610969f, 0.06754185f, 0.04045345f, 0.05040857f, 0.04208978f, -0.03762513f, -0.20966307f, 0.09636320f, -0.06932808f, 0.19234077f, -0.11519615f, 0.10093030f, 0.08710434f, -0.05903671f, 0.00956566f, 0.09098682f, -0.06032489f, 0.28604693f, 0.00245179f, 0.23659675f, -0.10096024f, -0.27731916f, -0.21816377f, 0.06583362f, -0.10089501f, -0.05537019f, -0.10880948f, 0.04344154f, 0.04110146f, -0.06833019f, -0.01687877f, -0.12835687f, -0.01582441f, 0.03489198f, -0.06153182f, -0.03003571f, 0.17327709f, -0.02047814f, 0.00159302f, -0.04732304f, -0.13385124f, 0.14390598f, -0.04548545f, 0.09628645f, 0.04203164f, 0.24175534f, 0.18033513f, 0.05071889f, 0.04301008f, -0.10233486f, -0.21107483f, 0.26605808f, -0.05539393f, -0.00471298f, -0.14054078f, 0.08867841f, 0.02237467f, 0.05309821f, 0.11497063f, -0.15135015f, 0.09339442f, 0.13114858f, -0.08794221f, 0.02998091f, 0.12681737f, -0.01168795f, -0.23125581f, -0.03396815f, -0.01805798f, 0.04437372f, 0.09115201f, 0.04641516f, 0.06016341f, -0.13424032f, 0.08084774f, -0.08810442f, 0.04077036f, 0.15338654f, -0.02961734f, 0.17342814f, 0.02377500f, 0.02522194f, -0.02769104f, 0.11519391f, 0.01398604f, 0.00241165f, -0.12847929f, -0.07781559f, -0.18432013f, 0.11984175f, -0.16333072f, -0.12939258f, -0.01238308f, -0.09362296f, 0.26853180f, -0.05067594f, -0.02165133f, 0.02359086f, 0.16084764f, -0.01936819f, 0.07438098f, 0.05547315f, -0.01526044f, -0.04102223f, 0.08325657f},
    {0.11256429f, -0.07763058f, -0.17635030f, -0.05639949f, 0.08960436f, -0.07645016f, -0.01230958f, -0.10374093f, 0.06908151f, -0.06307330f, 0.08180033f, -0.06910034f, -0.05815036f, 0.05075589f, 0.07457363f, -0.06617391f, -0.07601215f, -0.04476509f, 0.03369139f, 0.05248382f, -0.09643116f, -0.10155041f, 0.17211973f, 0.00183717f, -0.00525762f, 0.02058904f, -0.00965740f, -0.09646002f, -0.10908156f, -0.00795983f, 0.03019434f, 0.02095850f, -0.06475885f, -0.01105024f, -0.02504824f, -0.09685582f, -0.04057012f, -0.18613648f, 0.16583228f, -0.04995618f, 0.10411550f, 0.04702381f, 0.00203715f, -0.03365826f, 0.00358696f, -0.02117217f, -0.11003310f, 0.01983789f, -0.16084756f, 0.11004861f, -0.03663154f, 0.12051222f, -0.08977019f, 0.07570741f, 0.02825045f, 0.06153075f, 0.03012680f, -0.12471783f, 0.15506379f, -0.09605934f, 0.09462485f, 0.01295437f, -0.13243837f, -0.20008259f, -0.18377304f, -0.12493857f, -0.06068629f, 0.01158624f, -0.01961854f, -0.08282695f, -0.16269211f, -0.08594746f, -0.00253881f, -0.08031602f, -0.03459504f, 0.20160087f, -0.08675174f, 0.00534387f, 0.04497192f, 0.02138344f, 0.11233186f, -0.06254926f, -0.01340408f, 0.07436014f, 0.01384376f, -0.03799929f, 0.16712535f, 0.17322279f, -0.06945576f, 0.04699384f, 0.02936732f, 0.01230539f, 0.18479611f, 0.06656045f, -0.08540776f, -0.02291697f, -0.03946073f, 0.10608948f, 0.07251331f, 0.02252593f, -0.07470609f, -0.13885965f, 0.05807692f, -0.05835142f, -0.01077011f, 0.21336410f, -0.00144491f, 0.08674455f, -0.04833875f, -0.05219809f, 0.09481761f, 0.12122009f, -0.04648900f, 0.06553044f, 0.01661589f, 0.05808895f, -0.04459642f, -0.06481475f, 0.02069698f, -0.09694678f, 0.17556814f, 0.14661110f, -0.01113304f, 0.13302879f, 0.02164005f, -0.02709086f, -0.15071480f, 0.18278556f, -0.04242508f, -0.06323857f, -0.05051585f, 0.21946366f, -0.12136652f, 0.15387245f, 0.10480432f, -0.03541650f, 0.04743815f, -0.07139802f, -0.02555901f, -0.15386858f, 0.15664904f, -0.03763002f, 0.26020141f, 0.18915916f, -0.15198015f, -0.10779519f, -0.02967468f, -0.01195177f, 0.01523156f, 0.13515556f, -0.07631117f, 0.03813833f, -0.21876181f, 0.00948348f, 0.10963040f, -0.13470664f, 0.08275220f, -0.02292438f, 0.11823169f, -0.00849948f, 0.08411409f, 0.11542984f, 0.11858619f, 0.03586526f, 0.09140408f, -0.17248162f, 0.05484942f, -0.05512837f, 0.04498945f, -0.11840508f, 0.03985586f, 0.03193147f, -0.03558851f, 0.03153649f, -0.04936791f, -0.13772742f, -0.06725271f, -0.06715538f, -0.10245445f, 0.06155749f, -0.06075672f, -0.01641242f, 0.07298281f, 0.11919828f, -0.05101351f, -0.00176313f, -0.22496383f, 0.20474497f, -0.11567449f, -0.00143336f, -0.04861345f, -0.01648198f, -0.10062672f, 0.13471390f, -0.18867096f, -0.05519894f, -0.07282539f, -0.04286618f, -0.21477856f, -0.09238753f, -0.08008122f, -0.03358310f, 0.15040509f, 0.21956912f, -0.03738082f, 0.14561953f, -0.04017698f, 0.05341677f, -0.04087750f, 0.16113926f, 0.04914924f, -0.10139585f, 0.11469077f, 0.11064228f, -0.22861253f, 0.16933302f, 0.01805540f, 0.07960574f, 0.21123901f, -0.05313808f, 0.04454139f, -0.04275617f, 0.08201425f, -0.08512063f, 0.08368633f, -0.01004467f, -0.06633377f, 0.00238943f, 0.00843727f, -0.04424239f, -0.09546268f, 0.09417144f, 0.12256366f, -0.21543539f, -0.00327526f, 0.03057058f, 0.07643804f, -0.01359246f, 0.09838104f, -0.00378199f, 0.10926899f, -0.02347077f, 0.00313606f, -0.11366887f, 0.08814716f, -0.03088022f, -0.21121891f, -0.12737005f, 0.10441080f, -0.02562205f, -0.00645155f, -0.16972204f, 0.07647550f, 0.07849943f, 0.11109438f, -0.12658481f},
    {0.09343856f, 0.02760794f, 0.12252044f, 0.14403864f, 0.02892159f, 0.07805416f, -0.08582991f, -0.08642971f, -0.04573883f, 0.23802251f, 0.18409572f, -0.14257551f, -0.00227783f, -0.20303678f, 0.03779468f, 0.11595447f, 0.04700220f, 0.18525332f, 0.08958099f, -0.20471729f, -0.24101284f, -0.22101794f, -0.08371960f, -0.09490919f, 0.03729571f, -0.01181349f, -0.10848492f, 0.02939694f, -0.11261454f, 0.04953061f, 0.01051553f, 0.09897622f, -0.12427208f, -0.13535114f, -0.05969431f, 0.11593026f, -0.10106691f, -0.08927167f, -0.00903451f, -0.02578314f, 0.13486802f, 0.25759963f, 0.07031568f, 0.27243637f, -0.03868866f, 0.00656231f, -0.26738034f, 0.13099992f, -0.02597396f, -0.05780948f, -0.09649988f, -0.03186066f, -0.20455726f, -0.02857092f, 0.00304468f, -0.15421059f, 0.09419800f, -0.07215626f, 0.26974908f, -0.03405136f, -0.01585526f, 0.15724525f, 0.10088344f, 0.14538109f, 0.10205031f, -0.16123659f, 0.02701890f, -0.11561208f, 0.06125318f, -0.13761714f, 0.10303202f, 0.04966608f, 0.04388434f, 0.16524149f, -0.12983906f, 0.07383927f, 0.09904154f, 0.03162797f, -0.22534910f, 0.11243043f, -0.12950794f, -0.20114633f, -0.14028298f, 0.09470750f, 0.03115654f, 0.01638548f, -0.01295071f, -0.03233127f, -0.02326933f, 0.10929284f, 0.03043332f, -0.08919309f, 0.01514039f, -0.18699281f, -0.02324981f, -0.10108299f, 0.06664376f, -0.19321780f, -0.05710935f, 0.22865226f, 0.16402505f, -0.01242236f, -0.02628559f, 0.14937787f, 0.11450003f, 0.07313059f, -0.02483711f, 0.13645616f, 0.09800808f, -0.19658569f, -0.05310676f, -0.02090926f, 0.12970908f, -0.12672929f, 0.22780769f, -0.14717848f, 0.12837432f, -0.13390948f, 0.10744759f, 0.01741000f, 0.07124341f, 0.00352096f, 0.21212133f, 0.11932798f, 0.02396983f, -0.07487607f, 0.08209944f, -0.13267877f, 0.14781210f, 0.08943552f, 0.00073883f, -0.07521856f, 0.00967177f, -0.20856173f, -0.01480270f, 0.01766523f, 0.03690985f, -0.18117014f, -0.07294290f, -0.14232468f, -0.05831287f, -0.08733904f, -0.04897538f, 0.05928554f, 0.00802813f, 0.03945133f, 0.01776157f, 0.05117692f, 0.22228526f, 0.16191598f, 0.07031333f, 0.10413942f, 0.02936099f, -0.01231287f, -0.19298367f, 0.12850626f, -0.36349934f, 0.03706410f, 0.14232865f, -0.01291973f, -0.18893179f, 0.01238321f, -0.11055563f, -0.03470122f, -0.16555795f, -0.05554508f, -0.08887450f, -0.19673759f, -0.04691402f, -0.00286176f, -0.07632403f, 0.01799098f, -0.05659542f, -0.12915057f, 0.03234240f, 0.07007551f, -0.02776422f, 0.21733452f, -0.09006452f, 0.09152860f, 0.13117148f, 0.09822762f, -0.07558179f, -0.02154138f, -0.06454722f, -0.08035101f, 0.07752120f, -0.04189119f, 0.01556156f, 0.00506011f, -0.00332041f, -0.04522544f, -0.01551437f, 0.18669612f, 0.04114902f, 0.06759713f, -0.23178627f, 0.05496131f, 0.10863019f, -0.11988441f, -0.31219375f, 0.09468870f, -0.06353850f, 0.02968228f, 0.14935847f, 0.03304918f, 0.10015762f, 0.09972850f, -0.10591678f, 0.06761617f, -0.04007394f, -0.04474805f, -0.01617844f, -0.21750783f, 0.05699155f, -0.15404493f, -0.05067627f, -0.07853218f, 0.02519312f, 0.04397579f, -0.19609489f, 0.02131279f, 0.02594273f, 0.06210099f, 0.03911285f, 0.08849192f, 0.08369325f, -0.16874487f, -0.07964797f, -0.09240993f, 0.09664568f, -0.04241521f, -0.03945538f, -0.25818551f, -0.08814220f, 0.08576275f, 0.22075802f, -0.01352143f, -0.16609908f, 0.05302091f, -0.24271468f, -0.06486711f, -0.16483974f, 0.16190762f, 0.05269439f, 0.07610838f, -0.04491102f, 0.10037108f, 0.10052094f, -0.03383006f, 0.13344770f, 0.08840161f, -0.06721264f, 0.16737130f, 0.12421675f, -0.06263701f},
    {0.04321569f, -0.07995073f, -0.00106153f, 0.05747635f, 0.03727814f, 0.04448437f, 0.10618455f, -0.05088189f, 0.07719445f, -0.10638423f, 0.23317080f, -0.05230973f, 0.03002225f, 0.01784570f, 0.16911730f, 0.09098709f, -0.08467776f, -0.08957558f, 0.03080059f, 0.10684110f, 0.10416845f, 0.12542968f, 0.00019450f, -0.08614812f, -0.12038097f, -0.00321463f, 0.05753659f, 0.06836211f, 0.09494453f, 0.10974295f, 0.10762162f, -0.18541379f, 0.06548759f, 0.12605500f, -0.09500544f, -0.13217928f, -0.16046942f, 0.11945698f, -0.07463249f, 0.13470612f, 0.01002713f, 0.04261909f, 0.07987275f, -0.13242408f, -0.03460665f, -0.13949511f, -0.19255604f, -0.00878614f, -0.04641564f, -0.02114029f, 0.14383606f, -0.09444592f, -0.07511584f, 0.04179632f, -0.06042460f, 0.26509305f, 0.18375297f, 0.24026995f, -0.07382358f, -0.01314183f, 0.04138846f, 0.21727043f, 0.02154375f, -0.05576055f, 0.00081027f, 0.07461372f, 0.01878589f, -0.06124561f, 0.02028185f, -0.03990334f, 0.01877617f, -0.03644666f, -0.13350134f, 0.07309842f, 0.00378745f, 0.00781987f, -0.04812808f, 0.16150075f, 0.09578860f, 0.10728344f, -0.00647664f, 0.07696779f, -0.03030607f, -0.08660987f, -0.09907527f, -0.08046314f, 0.00241435f, -0.15270632f, 0.04975178f, -0.07063373f, 0.05194115f, -0.15808031f, 0.01454621f, -0.04812320f, 0.11628458f, 0.00556172f, -0.20577801f, 0.01306505f, 0.00183263f, 0.06689883f, 0.03803942f, 0.12629487f, -0.11320922f, 0.12956857f, -0.12172834f, -0.14391001f, 0.02264748f, -0.03442275f, -0.06740366f, 0.04259190f, -0.05052673f, -0.01862616f, 0.10080509f, 0.06203361f, -0.05371767f, -0.09374429f, 0.09806518f, 0.16784427f, -0.13249511f, 0.03458525f, -0.01146741f, -0.17756897f, -0.03353461f, -0.11533674f, 0.02370175f, -0.04082848f, -0.08359554f, 0.07722682f, -0.01097818f, -0.15754766f, -0.02857096f, 0.02822038f, 0.16656896f, -0.10406328f, -0.04648738f, -0.13685071f, 0.01582689f, 0.12332709f, -0.04669735f, -0.01135267f, -0.05070087f, -0.10820550f, 0.03911000f, 0.02643541f, -0.02793084f, -0.01696293f, 0.15277239f, -0.12843815f, 0.07640095f, -0.10049349f, 0.09471175f, 0.14932532f, 0.08558865f, 0.08350772f, 0.01778527f, -0.07137971f, -0.21297426f, 0.02664186f, -0.02547609f, 0.03122976f, -0.11259238f, -0.06213020f, 0.03415727f, 0.00811665f, 0.03100464f, 0.01003355f, -0.08976882f, 0.08016617f, 0.05476313f, -0.15355213f, -0.06520530f, -0.08645456f, 0.00657582f, -0.10381583f, 0.18355738f, 0.07299692f, 0.11769676f, -0.18147478f, 0.05473475f, -0.04376564f, -0.02258650f, 0.01781543f, -0.05976282f, -0.02586412f, 0.07612632f, 0.05550794f, 0.21417221f, 0.09724903f, 0.03043864f, 0.00824486f, 0.08554213f, -0.04241970f, -0.08840838f, -0.06835857f, 0.02506566f, -0.07092705f, -0.03189615f, 0.01223620f, 0.03770248f, 0.12127486f, 0.08017079f, 0.03419725f, 0.11116607f, 0.11275648f, -0.14921860f, 0.00109600f, 0.06977050f, -0.00192395f, 0.01094894f, -0.02408251f, -0.00649458f, -0.16533329f, -0.04412232f, 0.01235801f, -0.13872898f, 0.00803885f, 0.05636535f, -0.03018681f, 0.04999479f, -0.08517320f, -0.01140168f, -0.02154003f, -0.10456433f, 0.02882624f, -0.18020249f, 0.00241870f, 0.08799952f, 0.16953006f, -0.04004855f, -0.05440437f, -0.04371764f, 0.00373010f, -0.16269877f, 0.03393720f, 0.11729313f, -0.19411469f, 0.07358104f, -0.09713138f, -0.04027958f, 0.03076992f, 0.13485522f, 0.06852839f, -0.03874202f, -0.16848535f, -0.01708807f, -0.05341749f, 0.06039881f, -0.10095099f, 0.04726432f, -0.21498679f, 0.09001304f, 0.02009825f, -0.08466055f, 0.14108514f, 0.16942853f, -0.02711181f},
    {0.09257681f, 0.05864126f, 0.09010122f, -0.08138323f, 0.10515316f, 0.01859419f, -0.16627575f, 0.05788567f, -0.17490638f, 0.07853259f, 0.06991763f, -0.03377755f, -0.02735261f, 0.10987001f, -0.13846789f, -0.09443035f, -0.00016173f, 0.03438133f, 0.30102478f, 0.11611022f, 0.04808253f, 0.16234790f, -0.14515542f, -0.04203278f, -0.22893085f, 0.09771652f, 0.05474820f, 0.07735653f, -0.01713671f, 0.05762895f, 0.02210690f, -0.09017403f, 0.01890716f, 0.16497977f, 0.05766982f, 0.12471580f, 0.04719706f, 0.13444874f, 0.10271556f, -0.04018166f, -0.06291553f, -0.09732520f, 0.21466607f, -0.08962623f, 0.01931555f, -0.02165509f, -0.01474332f, -0.03874411f, 0.01867489f, 0.06050486f, -0.30220782f, 0.11602132f, -0.02819435f, -0.16113179f, -0.03790622f, -0.17232371f, 0.06954007f, 0.03973228f, 0.09236394f, 0.10255878f, -0.11283796f, 0.09044793f, -0.06132477f, 0.02349000f, 0.14626061f, 0.04130797f, 0.01051895f, 0.02070669f, 0.07636211f, 0.16590565f, -0.13777853f, 0.09928267f, 0.11593494f, 0.17985726f, 0.13168683f, -0.11168032f, 0.02741830f, 0.01539145f, 0.03221339f, 0.00410664f, 0.12948811f, 0.17161873f, 0.03178976f, -0.02745948f, -0.00674573f, -0.18777069f, -0.11059060f, 0.01324634f, -0.11468946f, -0.06638587f, -0.15524833f, -0.14265988f, -0.14738102f, 0.03482654f, 0.03699857f, 0.10328386f, -0.08624343f, -0.07428046f, 0.04752792f, -0.04920095f, -0.11884938f, 0.25648541f, 0.20793081f, 0.13469689f, -0.04647885f, -0.07835948f, 0.10389713f, -0.03171231f, 0.03880099f, -0.14659723f, -0.10304232f, 0.03134445f, 0.17335173f, 0.20845987f, 0.04624222f, 0.02563779f, 0.04492511f, 0.05855977f, 0.08944027f, -0.03113840f, -0.03803064f, 0.03649417f, 0.15661338f, -0.16805710f, 0.07712573f, 0.04427306f, -0.12474320f, -0.06126180f, 0.06260756f, -0.14034616f, 0.14426660f, -0.00475166f, -0.26448199f, 0.12043268f, -0.10534867f, -0.04590666f, 0.15136669f, 0.20302872f, 0.12751544f, 0.11925915f, 0.08426327f, 0.00847846f, 0.04477989f, 0.17124484f, 0.06262244f, -0.04862137f, 0.23338911f, -0.08251077f, -0.06240548f, 0.09519234f, 0.00041173f, -0.19448404f, 0.07054009f, 0.09816185f, -0.01625887f, -0.00246035f, 0.07713292f, 0.02338948f, 0.15911060f, 0.15816594f, 0.04395927f, 0.01127617f, -0.04894303f, 0.06356653f, -0.08225073f, 0.20085081f, 0.11666368f, -0.00221008f, 0.26010380f, -0.04737214f, -0.21074676f, 0.07803619f, 0.02151414f, 0.13810783f, -0.08405247f, -0.02214939f, 0.11541199f, -0.01539174f, 0.12339017f, -0.00463709f, 0.01076458f, 0.04852072f, 0.17409130f, -0.18992625f, -0.09098911f, -0.00858487f, -0.20041487f, 0.14486796f, -0.09080238f, -0.01810964f, 0.01352132f, -0.16418227f, 0.12457773f, -0.06258723f, -0.15981602f, -0.03572143f, -0.03837519f, -0.01763015f, 0.09901321f, 0.06051973f, 0.06796556f, -0.10933846f, 0.05656495f, 0.04466192f, -0.04324293f, 0.02746790f, 0.07967794f, 0.07353174f, -0.13684531f, 0.00345434f, -0.12601818f, 0.03260474f, 0.10659089f, -0.17205217f, 0.11808135f, 0.00205064f, 0.03732734f, 0.06933650f, 0.04680091f, -0.05399056f, 0.06066571f, 0.13687243f, -0.00064881f, -0.06689914f, 0.10929765f, 0.22384554f, -0.01062383f, 0.00933306f, 0.00822340f, 0.00709434f, -0.14650119f, -0.00089714f, -0.08018960f, -0.01471070f, 0.09473436f, -0.01420959f, 0.01789355f, 0.15279629f, -0.06048009f, 0.13011438f, 0.04714696f, -0.03312203f, -0.06551302f, 0.08756701f, -0.09765784f, -0.01055389f, 0.11524200f, 0.18625616f, 0.05899412f, -0.00875906f, 0.21390243f, -0.05353968f, -0.13013617f, 0.08094589f, -0.07142476f, 0.01282445f},
    {-0.07200176f, 0.09542722f, 0.01791059f, -0.01624549f, 0.05331481f, -0.03656859f, -0.13941839f, -0.09445303f, 0.13702181f, -0.09836323f, 0.02446516f, -0.14687477f, -0.08071590f, 0.07538777f, -0.09070832f, 0.02451203f, 0.01227955f, -0.21922513f, -0.10705754f, 0.11673188f, 0.07981354f, -0.13647164f, 0.07713340f, 0.01287977f, -0.03062392f, 0.02047043f, 0.01299256f, 0.18316591f, -0.03890456f, -0.11523327f, -0.00319083f, 0.26673815f, 0.07681604f, 0.16616796f, -0.10033538f, 0.12259734f, -0.19048032f, 0.01092460f, 0.00922096f, -0.03241221f, 0.05010606f, 0.07813778f, -0.02486233f, -0.06496044f, -0.01614399f, -0.08758782f, -0.00960163f, 0.02975706f, -0.01189369f, 0.23845005f, 0.12598175f, -0.00936075f, -0.05153700f, 0.18238744f, 0.00137410f, 0.00789739f, 0.20205536f, 0.24723991f, -0.04973617f, -0.04625494f, -0.11541194f, 0.03373067f, 0.06369056f, -0.03593461f, -0.08510609f, -0.03147950f, -0.14352415f, 0.01413345f, -0.01618463f, -0.06437740f, -0.05441193f, 0.03477341f, -0.04818814f, -0.01350339f, -0.05793148f, 0.03610274f, 0.02763885f, 0.03969730f, 0.00838048f, -0.05246869f, -0.13751517f, -0.08411916f, 0.04962910f, -0.09984071f, 0.12823702f, 0.13430972f, -0.21455970f, 0.02246144f, -0.04515737f, -0.21739578f, 0.11932925f, -0.10770537f, 0.12376581f, 0.08655177f, -0.00128160f, -0.05065181f, 0.00998426f, -0.05214786f, 0.10714926f, 0.01893095f, 0.04037598f, -0.12381462f, -0.07687947f, -0.18980010f, 0.05255640f, 0.15001873f, 0.08689048f, 0.12758440f, -0.20427659f, -0.14885215f, 0.06094641f, 0.02170378f, 0.05032332f, -0.04927900f, 0.08152098f, 0.01037282f, 0.00284866f, -0.19421934f, 0.09526296f, -0.10659225f, -0.01787190f, 0.02897088f, -0.04118270f, -0.07929270f, 0.11713948f, -0.02318623f, -0.10689721f, 0.07453517f, -0.01090169f, -0.04225558f, 0.01334352f, 0.05334370f, -0.10145791f, -0.02869587f, 0.12149731f, 0.01787270f, -0.02642007f, 0.01893441f, 0.05629858f, -0.20612852f, 0.05947439f, -0.12584623f, 0.12247998f, -0.06118490f, -0.08528771f, -0.09902987f, -0.04481808f, 0.01945020f, 0.09506301f, -0.24301023f, -0.11954726f, -0.12099354f, 0.05501604f, 0.04918573f, -0.06112098f, 0.11214658f, -0.10666311f, 0.03307716f, -0.05148804f, -0.01319046f, 0.13645646f, -0.05051245f, 0.21401833f, 0.10097818f, 0.03080564f, -0.16676616f, -0.01855710f, 0.01894633f, -0.16060855f, 0.06948184f, 0.10007108f, -0.07397968f, -0.01283290f, -0.05889350f, 0.00100874f, -0.04268907f, -0.01553319f, -0.07657770f, -0.12262638f, 0.03687074f, -0.00503889f, 0.15471944f, -0.08434060f, -0.06850186f, -0.06818344f, 0.08728095f, 0.11688307f, 0.07250938f, 0.13650579f, -0.01738620f, -0.10107941f, -0.04490817f, 0.13783736f, 0.17811118f, 0.16339459f, 0.05648707f, -0.07374544f, 0.06374707f, 0.02842968f, -0.01264037f, 0.03734395f, 0.01848877f, 0.08913500f, -0.02119297f, -0.01439080f, 0.00935574f, -0.04271508f, 0.09566497f, -0.13977135f, 0.03861021f, 0.05962693f, -0.13266267f, 0.04631130f, -0.01542351f, 0.29937271f, -0.03037718f, -0.10996694f, 0.02753896f, -0.11032982f, 0.04237762f, 0.05761171f, -0.05159945f, -0.05912840f, -0.06611676f, -0.06701519f, -0.27380565f, 0.15744884f, 0.03896775f, -0.12694329f, 0.09951380f, -0.13497805f, 0.09912146f, 0.00138403f, 0.08677428f, -0.11835591f, 0.02598192f, -0.27060331f, -0.08136438f, 0.10247905f, -0.06821069f, 0.01785913f, 0.04424178f, -0.09302586f, -0.06002499f, 0.02550849f, 0.05410966f, -0.01974300f, -0.02373897f, 0.04747447f, 0.31446185f, -0.12598723f, 0.08298591f, -0.13482597f, -0.07154550f, 0.08735357f, -0.09334889f},
    {-0.01625319f, -0.06681006f, 0.07313472f, -0.02653010f, -0.00005655f, 0.05743688f, -0.06501550f, -0.02448393f, -0.02799174f, 0.02638319f, 0.04314367f, 0.10441804f, 0.10643986f, 0.02289886f, 0.03681490f, 0.14871271f, 0.10245236f, 0.07205813f, -0.05840283f, 0.05540696f, 0.25751239f, -0.05986061f, -0.01250041f, -0.01522560f, 0.05827708f, -0.03350509f, 0.05751831f, 0.01686887f, 0.09497793f, 0.36678467f, 0.09751707f, 0.08318390f, 0.03980430f, -0.02231954f, 0.00395403f, 0.04710372f, -0.12209558f, 0.02053958f, -0.16985735f, -0.05629933f, 0.10673432f, -0.01214577f, -0.00227072f, -0.02957946f, -0.12292048f, -0.04738197f, -0.01357821f, 0.05473983f, -0.00099191f, 0.00030878f, -0.16579998f, 0.08676193f, -0.05207611f, 0.02573248f, -0.00357884f, 0.07736888f, -0.03226501f, 0.06979785f, -0.12104270f, 0.13959913f, -0.04109949f, -0.00114979f, -0.13540259f, 0.07053359f, 0.09579558f, 0.10135431f, -0.00603854f, -0.02534165f, 0.03134659f, -0.01081255f, -0.12727389f, 0.07552842f, -0.12768314f, 0.05442898f, -0.02584314f, 0.05312758f, -0.03970926f, 0.17663556f, -0.07578759f, -0.13477382f, 0.06248395f, 0.10839906f, -0.03419388f, -0.10565515f, -0.01999329f, 0.14957323f, -0.03031778f, 0.04543036f, 0.21212511f, -0.07457799f, -0.01624333f, -0.12352645f, 0.01255995f, -0.11085056f, -0.12563793f, 0.24895026f, -0.02865576f, -0.03178401f, -0.02564508f, -0.06018497f, 0.03707739f, -0.01970998f, -0.00655717f, -0.23174152f, 0.03144162f, -0.02318249f, -0.08292140f, -0.05637293f, -0.12571924f, 0.00121694f, -0.00676310f, -0.19057377f, -0.01740604f, 0.00481207f, -0.10083093f, 0.14359249f, 0.03353197f, -0.05907696f, -0.03162552f, -0.01089203f, 0.00516201f, 0.02849924f, 0.10218216f, -0.04524707f, 0.15717532f, 0.03090306f, -0.06723815f, -0.01531315f, -0.01333060f, 0.13771120f, -0.07030254f, -0.18365733f, -0.12889369f, -0.00785730f, -0.05306390f, 0.05106221f, -0.08814484f, -0.04143958f, 0.09482082f, 0.15676332f, -0.00238535f, -0.07191874f, -0.16254377f, 0.00677211f, 0.01469456f, -0.10219766f, -0.01538037f, -0.05359040f, 0.13686188f, -0.06469851f, -0.04124668f, -0.00564553f, 0.17641447f, -0.16408244f, -0.10766628f, 0.04589883f, -0.08562624f, 0.02977902f, -0.04146782f, -0.06802185f, 0.05707166f, -0.11034082f, -0.06719098f, -0.02320911f, 0.10459685f, 0.07445306f, 0.14392868f, -0.05172023f, 0.11191872f, 0.16308631f, 0.00214554f, -0.05719741f, -0.04023823f, -0.14745676f, -0.04738366f, 0.05027120f, 0.20529792f, 0.02649017f, 0.02449289f, -0.25766811f, -0.05492409f, -0.06170948f, -0.23031681f, 0.02826968f, -0.06101068f, -0.01300357f, 0.02719694f, -0.04304348f, 0.13798922f, 0.01314264f, 0.05549114f, 0.10974447f, -0.05581894f, 0.09494094f, 0.06143704f, 0.13473259f, -0.09059269f, 0.01635193f, 0.02889350f, -0.08717621f, -0.05676891f, -0.00705576f, -0.05558937f, 0.21815344f, 0.06112529f, -0.05424393f, 0.04717427f, -0.21642512f, -0.03886168f, 0.01868461f, 0.07233974f, -0.11757061f, -0.07619987f, -0.11229068f, 0.18761823f, 0.08074395f, 0.10032967f, -0.00254590f, -0.23821078f, -0.00343633f, -0.09551296f, -0.15606188f, -0.05695293f, -0.07808632f, -0.14548934f, 0.05031346f, 0.01987878f, 0.05419902f, 0.00248409f, -0.06950481f, -0.04948242f, -0.03266393f, 0.11661121f, 0.06359728f, -0.03155103f, 0.00426843f, 0.16329625f, 0.08557875f, 0.14623400f, -0.15699749f, 0.08147193f, 0.12509806f, 0.02814634f, 0.14384451f, 0.00590406f, -0.06545569f, 0.09874040f, -0.08180143f, -0.01559147f, 0.17735327f, -0.08116732f, 0.04126728f, 0.00987565f, -0.02432099f, -0.11208824f, 0.04736502f},
    {-0.09606600f, 0.12363071f, -0.00527120f, -0.08703839f, 0.10042391f, 0.11141258f, 0.02369602f, 0.01842978f, -0.12386727f, -0.11374014f, 0.00843090f, 0.12094937f, 0.00578402f, -0.07933231f, 0.28246604f, 0.12746239f, 0.06841431f, 0.05015802f, -0.06389900f, -0.06850278f, -0.01639556f, -0.03835458f, 0.01938503f, 0.03075484f, -0.01707571f, 0.13909877f, 0.01274267f, 0.08154482f, 0.03679685f, 0.09251251f, 0.18420333f, 0.00323759f, 0.15664707f, 0.12890181f, 0.01162614f, -0.03571936f, -0.13946253f, 0.08643418f, -0.12058449f, -0.08458343f, 0.05173379f, 0.07324071f, 0.06583097f, -0.02884296f, -0.07337873f, 0.18072897f, -0.10197490f, -0.12970755f, -0.02512573f, 0.15761356f, 0.06163459f, 0.02135866f, -0.16231431f, 0.08432026f, -0.04374124f, 0.06364676f, -0.14803723f, 0.19710038f, 0.13271060f, -0.14719243f, -0.12729242f, 0.04062422f, -0.07219741f, -0.09375490f, -0.06018013f, -0.04341979f, 0.04079776f, 0.05105998f, 0.26849549f, 0.22043641f, -0.03680015f, 0.02258047f, 0.04941840f, -0.00976279f, -0.03781405f, 0.16798449f, -0.00295624f, 0.00074737f, 0.03348140f, 0.11345957f, 0.21336193f, 0.01787815f, -0.00148181f, -0.09311246f, 0.01689281f, -0.09462183f, 0.18829126f, -0.03975773f, -0.02052611f, -0.02252119f, -0.12013255f, 0.06036176f, -0.06821867f, -0.07693260f, -0.15789618f, -0.17680215f, 0.22682200f, -0.11518785f, -0.10552024f, -0.04343448f, -0.01284440f, -0.05768523f, -0.06289751f, 0.11643591f, -0.10661878f, -0.10214399f, 0.06901713f, -0.06600985f, -0.00099249f, -0.15075834f, -0.03121413f, -0.08154636f, 0.10630966f, 0.09960348f, 0.01634184f, -0.05504063f, 0.02897988f, -0.14902336f, -0.15116181f, 0.05218365f, 0.02510409f, -0.09238243f, 0.08856653f, 0.05413461f, -0.09344163f, 0.09201678f, -0.00365877f, 0.05524890f, 0.02283579f, -0.02239973f, -0.02113979f, 0.02363321f, 0.00307701f, -0.13174544f, -0.01627326f, 0.20859134f, 0.01157416f, -0.07322479f, -0.07671781f, 0.05737168f, 0.02090613f, -0.05068299f, 0.12578937f, 0.01896285f, -0.00916993f, 0.05517267f, -0.06103173f, 0.20591485f, 0.14921831f, 0.11367365f, 0.02093717f, -0.01451696f, 0.10701078f, -0.01903891f, -0.00040560f, -0.19233329f, -0.17291070f, 0.02235596f, 0.05164273f, 0.05370752f, -0.00589956f, -0.11551929f, 0.06138025f, 0.01020565f, -0.03146601f, 0.13658403f, -0.06667757f, -0.16117937f, 0.03969405f, 0.01032558f, -0.08532412f, -0.01138294f, 0.10608261f, 0.10844366f, -0.07575588f, 0.10380419f, -0.08361293f, 0.04357914f, -0.03818310f, -0.14300826f, 0.08640504f, 0.05807943f, 0.12747346f, -0.15633975f, -0.25454802f, 0.07168628f, -0.06853966f, -0.09108043f, 0.02889383f, 0.06460051f, -0.08796660f, -0.04118676f, -0.05938229f, 0.00437276f, -0.07203860f, 0.06889089f, -0.01925104f, 0.11390634f, -0.01642456f, -0.10746148f, -0.07914935f, -0.03392573f, -0.13286976f, -0.05330394f, -0.07095985f, 0.02258605f, 0.04644746f, 0.14555257f, 0.05582693f, 0.24411334f, -0.14394899f, 0.00427142f, 0.05224709f, -0.13951903f, -0.22393297f, -0.15748411f, -0.10714306f, 0.05611729f, -0.00185808f, 0.01644884f, -0.18444972f, 0.02296832f, -0.19305706f, 0.12073742f, -0.14455217f, 0.15465765f, 0.01459589f, -0.13564387f, 0.02624436f, 0.20432823f, 0.12371796f, 0.01289355f, -0.00128740f, 0.13814772f, 0.07928811f, -0.03075833f, -0.10026199f, 0.07288141f, 0.05721646f, 0.01592276f, 0.04411812f, -0.14007848f, 0.12610645f, 0.03719156f, 0.10901084f, -0.14151600f, 0.03513053f, 0.09493124f, 0.14540235f, -0.04497946f, 0.02144461f, 0.08722321f, 0.16513996f, -0.11389735f, 0.02057172f, 0.02947558f},
